{"learner":{"attributes":{"scikit_learn":"{\"_estimator_type\": \"classifier\"}"},"feature_names":[],"feature_types":[],"gradient_booster":{"model":{"gbtree_model_param":{"num_parallel_tree":"1","num_trees":"800"},"iteration_indptr":[0,8,16,24,32,40,48,56,64,72,80,88,96,104,112,120,128,136,144,152,160,168,176,184,192,200,208,216,224,232,240,248,256,264,272,280,288,296,304,312,320,328,336,344,352,360,368,376,384,392,400,408,416,424,432,440,448,456,464,472,480,488,496,504,512,520,528,536,544,552,560,568,576,584,592,600,608,616,624,632,640,648,656,664,672,680,688,696,704,712,720,728,736,744,752,760,768,776,784,792,800],"tree_info":[0,1,2,3,4,5,6,7,0,1,2,3,4,5,6,7,0,1,2,3,4,5,6,7,0,1,2,3,4,5,6,7,0,1,2,3,4,5,6,7,0,1,2,3,4,5,6,7,0,1,2,3,4,5,6,7,0,1,2,3,4,5,6,7,0,1,2,3,4,5,6,7,0,1,2,3,4,5,6,7,0,1,2,3,4,5,6,7,0,1,2,3,4,5,6,7,0,1,2,3,4,5,6,7,0,1,2,3,4,5,6,7,0,1,2,3,4,5,6,7,0,1,2,3,4,5,6,7,0,1,2,3,4,5,6,7,0,1,2,3,4,5,6,7,0,1,2,3,4,5,6,7,0,1,2,3,4,5,6,7,0,1,2,3,4,5,6,7,0,1,2,3,4,5,6,7,0,1,2,3,4,5,6,7,0,1,2,3,4,5,6,7,0,1,2,3,4,5,6,7,0,1,2,3,4,5,6,7,0,1,2,3,4,5,6,7,0,1,2,3,4,5,6,7,0,1,2,3,4,5,6,7,0,1,2,3,4,5,6,7,0,1,2,3,4,5,6,7,0,1,2,3,4,5,6,7,0,1,2,3,4,5,6,7,0,1,2,3,4,5,6,7,0,1,2,3,4,5,6,7,0,1,2,3,4,5,6,7,0,1,2,3,4,5,6,7,0,1,2,3,4,5,6,7,0,1,2,3,4,5,6,7,0,1,2,3,4,5,6,7,0,1,2,3,4,5,6,7,0,1,2,3,4,5,6,7,0,1,2,3,4,5,6,7,0,1,2,3,4,5,6,7,0,1,2,3,4,5,6,7,0,1,2,3,4,5,6,7,0,1,2,3,4,5,6,7,0,1,2,3,4,5,6,7,0,1,2,3,4,5,6,7,0,1,2,3,4,5,6,7,0,1,2,3,4,5,6,7,0,1,2,3,4,5,6,7,0,1,2,3,4,5,6,7,0,1,2,3,4,5,6,7,0,1,2,3,4,5,6,7,0,1,2,3,4,5,6,7,0,1,2,3,4,5,6,7,0,1,2,3,4,5,6,7,0,1,2,3,4,5,6,7,0,1,2,3,4,5,6,7,0,1,2,3,4,5,6,7,0,1,2,3,4,5,6,7,0,1,2,3,4,5,6,7,0,1,2,3,4,5,6,7,0,1,2,3,4,5,6,7,0,1,2,3,4,5,6,7,0,1,2,3,4,5,6,7,0,1,2,3,4,5,6,7,0,1,2,3,4,5,6,7,0,1,2,3,4,5,6,7,0,1,2,3,4,5,6,7,0,1,2,3,4,5,6,7,0,1,2,3,4,5,6,7,0,1,2,3,4,5,6,7,0,1,2,3,4,5,6,7,0,1,2,3,4,5,6,7,0,1,2,3,4,5,6,7,0,1,2,3,4,5,6,7,0,1,2,3,4,5,6,7,0,1,2,3,4,5,6,7,0,1,2,3,4,5,6,7,0,1,2,3,4,5,6,7,0,1,2,3,4,5,6,7,0,1,2,3,4,5,6,7,0,1,2,3,4,5,6,7,0,1,2,3,4,5,6,7,0,1,2,3,4,5,6,7,0,1,2,3,4,5,6,7,0,1,2,3,4,5,6,7,0,1,2,3,4,5,6,7,0,1,2,3,4,5,6,7,0,1,2,3,4,5,6,7,0,1,2,3,4,5,6,7,0,1,2,3,4,5,6,7,0,1,2,3,4,5,6,7,0,1,2,3,4,5,6,7,0,1,2,3,4,5,6,7,0,1,2,3,4,5,6,7,0,1,2,3,4,5,6,7,0,1,2,3,4,5,6,7],"trees":[{"base_weights":[-7.140006E-2,-2.743099E-1,5.510237E-1,-4.1044593E-1,9.936218E-2,1.2997922E0,-3.4401438E-1,-4.407278E-1,1.829703E0,4.1465387E-1,-4.344042E-1,1.924578E0,-3.6494455E-1,-4.0619996E-1,1.0773994E0,-4.7601965E-1,-7.0445284E-2,2.6236558E0,-3.6879432E-1,6.557377E-2,1.5224313E0,4.555382E-1,-4.624534E-1,2.2372882E0,1.2584949E-1,-4.2063904E-1,1.1304348E0,1.1332634E-1,-4.8312804E-1,8.482871E-2,1.8846694E0,-3.948826E-1,-5.5448586E-1,2.7247956E-1,-5.120281E-1,3.2545297E0,3.6565098E-1,5.4901963E-1,-1.603239E-1,3.6324504E-1,-4.5024335E-1,2.0733414E0,1.901666E-1,-7.54717E-2,1.3012048E0,-4.8584172E-1,3.243243E-1,2.735788E0,9.323404E-1,8.9851767E-1,-4.7800976E-1,-1.4158027E-1,-5.317116E-1,-1.3953489E-1,2.1754386E0,8.9508796E-1,-4.756264E-1,-5.270555E-1,-1.2539627E-1,-1.7910448E-1,1.3577982E0,2.0725388E-2,2.429091E0,-3.807779E-2,-1.6326475E-1,-1.06416024E-1,-1.6846591E-1,3.7629975E-3,4.3960398E-1,-1.6004333E-1,6.4516135E-2,1.0072993E0,2.9052633E-1,-2.7540984E-2,5.4545456E-1,3.4029853E-1,-8.955224E-2,2.618596E-1,-4.6259157E-2,-1.5471318E-1,1.0616623E-1,7.318002E-1,-5.2173916E-2,1.26760565E-2,5.049774E-1,3.703704E-1,-1.0560001E-1,1.8461538E-2,6.278146E-1,-1.5720494E-1,-4.7299273E-2,5.6E-1,-7.5817E-2,4.5850456E-1,9.2233896E-1,4.315493E-1,-3.5141625E-2,-1.7061612E-2,5.171975E-1,-1.5550396E-1,9.23077E-2,-1.3394079E-1,2.7634072E-1,-1.6468419E-1,-6.9605574E-2,8.651163E-1,-0E0,1.1671088E-2,7.810909E-1,-1.5524079E-1,1.4311928E-1,-1.5935561E-1,2.5185186E-1,-1.4650767E-1,1.3621622E-1,2.189781E-1,-1.3642693E-1,6.268657E-1,3.2432433E-2,-1.3509934E-1,2.918919E-1,2.6042554E-1,9.7867435E-1],"categories":[],"categories_nodes":[],"categories_segments":[],"categories_sizes":[],"default_left":[0,0,0,0,0,0,0,0,0,0,0,0,0,0,0,0,0,0,0,0,0,0,0,0,0,0,0,0,0,0,0,0,0,0,0,0,0,0,0,0,0,0,0,0,0,0,0,0,0,0,0,0,0,0,0,0,0,0,0,0,0,0,0,0,0,0,0,0,0,0,0,0,0,0,0,0,0,0,0,0,0,0,0,0,0,0,0,0,0,0,0,0,0,0,0,0,0,0,0,0,0,0,0,0,0,0,0,0,0,0,0,0,0,0,0,0,0,0,0,0,0,0,0],"id":0,"left_children":[1,3,5,7,9,11,13,15,17,19,21,23,25,27,29,31,33,35,37,39,41,43,45,47,49,51,53,55,57,59,61,63,65,67,69,71,73,75,-1,77,79,81,83,85,87,89,91,93,95,97,99,101,103,-1,105,107,109,111,113,115,117,119,121,-1,-1,-1,-1,-1,-1,-1,-1,-1,-1,-1,-1,-1,-1,-1,-1,-1,-1,-1,-1,-1,-1,-1,-1,-1,-1,-1,-1,-1,-1,-1,-1,-1,-1,-1,-1,-1,-1,-1,-1,-1,-1,-1,-1,-1,-1,-1,-1,-1,-1,-1,-1,-1,-1,-1,-1,-1,-1,-1,-1],"loss_changes":[1.0780433E3,3.274957E2,1.406875E3,3.208794E2,2.895952E2,1.1894114E3,8.500341E1,6.081372E1,1.111525E2,4.1816782E2,1.6163826E1,4.6722754E2,2.6520092E1,3.671747E1,3.2191505E1,2.6844238E1,6.167204E1,6.504996E1,2.9725282E0,1.2660698E2,1.897926E2,9.093384E0,1.1567612E1,4.5801465E2,5.8358673E1,9.292221E0,2.018644E1,5.5273335E1,1.2493027E1,6.6792836E0,2.2496605E1,8.369571E1,2.8481445E0,7.1103775E1,2.8902588E0,5.287903E0,7.6629267E0,1.9198126E0,0E0,1.3797504E2,1.6069546E1,1.5111768E2,1.6913446E1,5.234553E0,7.5062494E0,7.466324E0,1.6936844E1,2.0458374E2,1.049314E2,4.332588E1,2.3888702E0,2.873179E1,9.8740005E-1,0E0,1.09783745E1,7.528029E1,2.9812403E0,4.4614105E0,1.8880964E1,4.529091E0,2.8890018E0,3.1435523E0,1.9521515E1,0E0,0E0,0E0,0E0,0E0,0E0,0E0,0E0,0E0,0E0,0E0,0E0,0E0,0E0,0E0,0E0,0E0,0E0,0E0,0E0,0E0,0E0,0E0,0E0,0E0,0E0,0E0,0E0,0E0,0E0,0E0,0E0,0E0,0E0,0E0,0E0,0E0,0E0,0E0,0E0,0E0,0E0,0E0,0E0,0E0,0E0,0E0,0E0,0E0,0E0,0E0,0E0,0E0,0E0,0E0,0E0,0E0,0E0,0E0,0E0],"parents":[2147483647,0,0,1,1,2,2,3,3,4,4,5,5,6,6,7,7,8,8,9,9,10,10,11,11,12,12,13,13,14,14,15,15,16,16,17,17,18,18,19,19,20,20,21,21,22,22,23,23,24,24,25,25,26,26,27,27,28,28,29,29,30,30,31,31,32,32,33,33,34,34,35,35,36,36,37,37,39,39,40,40,41,41,42,42,43,43,44,44,45,45,46,46,47,47,48,48,49,49,50,50,51,51,52,52,54,54,55,55,56,56,57,57,58,58,59,59,60,60,61,61,62,62],"right_children":[2,4,6,8,10,12,14,16,18,20,22,24,26,28,30,32,34,36,38,40,42,44,46,48,50,52,54,56,58,60,62,64,66,68,70,72,74,76,-1,78,80,82,84,86,88,90,92,94,96,98,100,102,104,-1,106,108,110,112,114,116,118,120,122,-1,-1,-1,-1,-1,-1,-1,-1,-1,-1,-1,-1,-1,-1,-1,-1,-1,-1,-1,-1,-1,-1,-1,-1,-1,-1,-1,-1,-1,-1,-1,-1,-1,-1,-1,-1,-1,-1,-1,-1,-1,-1,-1,-1,-1,-1,-1,-1,-1,-1,-1,-1,-1,-1,-1,-1,-1,-1,-1,-1],"split_conditions":[1E0,2.39E3,6.496022E-13,6.97E2,5.9943917E-13,1.71193E5,3.275E3,4.12E2,1.33843E5,5.56E2,1.07089E5,1.0777586E-3,6.15E2,1.14296E5,3.86E2,5.533332E-13,4.5769644E-13,2.6665975E-20,1.51925E5,1.74967E5,2.7268E4,3.86E2,6.38E2,2.6021E4,1.4402E5,1.81732E5,6.1E1,1.1821348E-12,2.351E3,1.2921E4,-8.1629724E-25,1.69711E5,1.04265E5,2.928E3,1.7E1,1.6E1,4E0,5.89E2,-1.603239E-1,7.142E3,1.941E4,1.79497E5,3.258E3,3.4E1,-5.161654E-25,1.1787E4,7.6E1,1E1,3.1794E4,1.3E1,6.56E2,1.8387E4,3.016E3,-1.3953489E-1,1.8594E5,6.1547967E-13,4.208E3,1.5E1,9.84E2,1.3009E5,7.339E3,1.019105E-12,5.7848415E-13,-3.807779E-2,-1.6326475E-1,-1.06416024E-1,-1.6846591E-1,3.7629975E-3,4.3960398E-1,-1.6004333E-1,6.4516135E-2,1.0072993E0,2.9052633E-1,-2.7540984E-2,5.4545456E-1,3.4029853E-1,-8.955224E-2,2.618596E-1,-4.6259157E-2,-1.5471318E-1,1.0616623E-1,7.318002E-1,-5.2173916E-2,1.26760565E-2,5.049774E-1,3.703704E-1,-1.0560001E-1,1.8461538E-2,6.278146E-1,-1.5720494E-1,-4.7299273E-2,5.6E-1,-7.5817E-2,4.5850456E-1,9.2233896E-1,4.315493E-1,-3.5141625E-2,-1.7061612E-2,5.171975E-1,-1.5550396E-1,9.23077E-2,-1.3394079E-1,2.7634072E-1,-1.6468419E-1,-6.9605574E-2,8.651163E-1,-0E0,1.1671088E-2,7.810909E-1,-1.5524079E-1,1.4311928E-1,-1.5935561E-1,2.5185186E-1,-1.4650767E-1,1.3621622E-1,2.189781E-1,-1.3642693E-1,6.268657E-1,3.2432433E-2,-1.3509934E-1,2.918919E-1,2.6042554E-1,9.7867435E-1],"split_indices":[136,293,515,310,515,365,293,357,365,437,365,512,357,365,437,515,515,517,365,365,438,291,357,438,365,365,373,515,293,301,518,365,365,301,10,428,90,0,0,146,438,365,356,503,518,301,138,428,438,501,510,438,293,0,365,514,228,166,364,365,374,514,514,0,0,0,0,0,0,0,0,0,0,0,0,0,0,0,0,0,0,0,0,0,0,0,0,0,0,0,0,0,0,0,0,0,0,0,0,0,0,0,0,0,0,0,0,0,0,0,0,0,0,0,0,0,0,0,0,0,0,0,0],"split_type":[0,0,0,0,0,0,0,0,0,0,0,0,0,0,0,0,0,0,0,0,0,0,0,0,0,0,0,0,0,0,0,0,0,0,0,0,0,0,0,0,0,0,0,0,0,0,0,0,0,0,0,0,0,0,0,0,0,0,0,0,0,0,0,0,0,0,0,0,0,0,0,0,0,0,0,0,0,0,0,0,0,0,0,0,0,0,0,0,0,0,0,0,0,0,0,0,0,0,0,0,0,0,0,0,0,0,0,0,0,0,0,0,0,0,0,0,0,0,0,0,0,0,0],"sum_hessian":[8.533656E3,6.4360625E3,2.0975938E3,4.7173438E3,1.7187188E3,1.141875E3,9.5571875E2,4.6552188E3,6.2125E1,1.080625E3,6.3809375E2,8.3015625E2,3.1171875E2,9.1634375E2,3.9375E1,4.249875E3,4.0534375E2,4.55E1,1.6625E1,8.225E2,2.58125E2,1.903125E1,6.190625E2,7.07E2,1.2315625E2,3.0121875E2,1.05E1,1.18125E2,7.9821875E2,1.815625E1,2.121875E1,2.0923438E3,2.1575312E3,2.28375E2,1.7696875E2,3.521875E1,1.028125E1,2.1875E0,1.44375E1,5.2171875E2,3.0078125E2,1.8221875E2,7.590625E1,1.225E1,6.78125E0,6.015625E2,1.75E1,5.1078125E2,1.9621875E2,5.38125E1,6.934375E1,8.640625E1,2.148125E2,4.375E0,6.125E0,5.053125E1,6.759375E1,7.105E2,8.771875E1,1.575E1,2.40625E0,5.03125E0,1.61875E1,7.494375E2,1.3429062E3,7.546875E1,2.0820625E3,1.8834375E2,4.003125E1,1.7215625E2,4.8125E0,3.325E1,1.96875E0,8.53125E0,1.75E0,1.09375E0,1.09375E0,2.625E2,2.5921875E2,2.7846875E2,2.23125E1,1.56625E2,2.559375E1,7E1,5.90625E0,1.53125E0,1.071875E1,3.0625E0,3.71875E0,5.3834375E2,6.321875E1,4.15625E0,1.334375E1,1.1309375E2,3.976875E2,1.32125E2,6.409375E1,2.5375E1,2.84375E1,6.628125E1,3.0625E0,6.759375E1,1.88125E1,2.0234375E2,1.246875E1,4.375E0,1.75E0,3.434375E1,1.61875E1,6.51875E1,2.40625E0,7.0896875E2,1.53125E0,5.403125E1,3.36875E1,3.28125E0,1.246875E1,1.09375E0,1.3125E0,3.71875E0,1.3125E0,6.34375E0,9.84375E0],"tree_param":{"num_deleted":"0","num_feature":"519","num_nodes":"123","size_leaf_vector":"1"}},{"base_weights":[-2.5207517E-1,-4.488931E-1,1.4870558E0,-5.1865774E-1,1.218646E-1,-9.93542E-3,3.5432868E0,-5.423333E-1,-3.4766313E-1,-4.42065E-1,2.1333787E0,1.45E0,-4.6584255E-1,6.657646E-1,3.7263963E0,-4.956338E-1,-5.6396043E-1,-5.196836E-1,4.5726407E-1,7.210626E-1,-5.029651E-1,2.4303505E0,-2.6035503E-1,2.4563758E0,-1.9354838E-1,-1.1408512E-1,-5.441337E-1,2.309859E0,-3.3675563E-1,3.7698903E0,4.24581E-1,-5.066897E-1,2.0061412E-1,-5.64202E-1,1.48148155E-2,-1.608355E-1,-5.530201E-1,-1.2856497E-1,9.613869E-1,-3.217158E-2,2.3058825E0,-5.2705735E-1,1.1994785E-1,1.4313902E0,3.142006E0,-4.4305772E-1,4.835821E-1,1.1356467E-1,3.2457912E0,-4.3491578E-1,1.3084112E0,-4.375E-1,2.418251E0,-5.504294E-1,1.9701493E-1,-9.7297296E-2,2.8099174E0,1.8947369E-1,-1.5849057E-1,3.8214488E0,1.5868852E0,-1.3138688E-1,5.5135137E-1,-1.6283149E-1,-1.1498213E-1,3.3624682E-1,-1.1612903E-1,-8.0000006E-2,-1.6940357E-1,-1.0150638E-1,3.7466067E-1,-1.6820596E-1,-7.775833E-2,-7.065694E-2,3.2258067E-1,1.5952097E-1,5.173333E-1,2.2960289E-1,-1.4131737E-1,-0E0,8.2816905E-1,8.192771E-2,-1.6100496E-1,6.3225806E-1,-1.4681894E-1,6.640777E-1,1.3333334E-1,3.9036146E-1,9.808845E-1,-1.6237624E-1,1.9701493E-1,4.5388603E-1,-1.3953489E-1,1.0376812E0,1.0632912E-1,-1.5145633E-1,1.647059E-1,-1.2413794E-1,7.5692314E-1,5.5135137E-1,-1.5433699E-1,9.2173916E-1,-0E0,-1.6982815E-1,-8.516129E-2,5.3731345E-2,9.68116E-1,1.1516579E0,1.48148155E-2,9.0909094E-1,-2.7906979E-2],"categories":[],"categories_nodes":[],"categories_segments":[],"categories_sizes":[],"default_left":[0,0,0,0,0,0,0,0,0,0,0,0,0,0,0,0,0,0,0,0,0,0,0,0,0,0,0,0,0,0,0,0,0,0,0,0,0,0,0,0,0,0,0,0,0,0,0,0,0,0,0,0,0,0,0,0,0,0,0,0,0,0,0,0,0,0,0,0,0,0,0,0,0,0,0,0,0,0,0,0,0,0,0,0,0,0,0,0,0,0,0,0,0,0,0,0,0,0,0,0,0,0,0,0,0,0,0,0,0,0,0],"id":1,"left_children":[1,3,5,7,9,11,13,15,17,19,21,23,25,27,29,31,33,35,37,39,41,43,45,47,49,51,53,55,57,59,61,63,65,67,-1,69,71,73,75,77,79,81,83,85,87,89,-1,91,93,95,97,99,101,103,-1,-1,105,-1,-1,107,109,-1,-1,-1,-1,-1,-1,-1,-1,-1,-1,-1,-1,-1,-1,-1,-1,-1,-1,-1,-1,-1,-1,-1,-1,-1,-1,-1,-1,-1,-1,-1,-1,-1,-1,-1,-1,-1,-1,-1,-1,-1,-1,-1,-1,-1,-1,-1,-1,-1,-1],"loss_changes":[2.9220132E3,3.0538318E2,2.6715894E3,2.7473267E1,9.4922626E2,3.3563614E2,1.9018408E2,5.7803955E0,1.1568629E2,4.667079E1,1.3087775E2,1.9895872E2,1.0519974E1,3.8841854E1,4.773828E1,1.4784271E1,6.343994E-1,8.134689E0,4.3638603E1,3.939301E1,9.394989E0,1.11448425E2,7.940483E0,1.3741547E2,1.7426418E1,5.9385796E1,2.7355957E0,1.2601875E1,3.1564512E0,3.2086914E1,7.623599E0,8.154297E0,1.6945673E1,4.2944336E-1,0E0,1.5398422E1,1.2706451E0,9.141703E0,2.5085495E1,8.52032E0,1.1139687E1,4.7589264E0,3.0060444E1,5.28143E1,1.7921814E1,2.5187027E0,0E0,1.6747854E1,3.309326E1,3.0856886E0,1.5033629E1,1.2152039E1,1.300248E1,1.1459656E0,0E0,0E0,7.7211494E0,0E0,0E0,2.1512695E1,2.3393358E1,0E0,0E0,0E0,0E0,0E0,0E0,0E0,0E0,0E0,0E0,0E0,0E0,0E0,0E0,0E0,0E0,0E0,0E0,0E0,0E0,0E0,0E0,0E0,0E0,0E0,0E0,0E0,0E0,0E0,0E0,0E0,0E0,0E0,0E0,0E0,0E0,0E0,0E0,0E0,0E0,0E0,0E0,0E0,0E0,0E0,0E0,0E0,0E0,0E0,0E0],"parents":[2147483647,0,0,1,1,2,2,3,3,4,4,5,5,6,6,7,7,8,8,9,9,10,10,11,11,12,12,13,13,14,14,15,15,16,16,17,17,18,18,19,19,20,20,21,21,22,22,23,23,24,24,25,25,26,26,27,27,28,28,29,29,30,30,31,31,32,32,33,33,35,35,36,36,37,37,38,38,39,39,40,40,41,41,42,42,43,43,44,44,45,45,47,47,48,48,49,49,50,50,51,51,52,52,53,53,56,56,59,59,60,60],"right_children":[2,4,6,8,10,12,14,16,18,20,22,24,26,28,30,32,34,36,38,40,42,44,46,48,50,52,54,56,58,60,62,64,66,68,-1,70,72,74,76,78,80,82,84,86,88,90,-1,92,94,96,98,100,102,104,-1,-1,106,-1,-1,108,110,-1,-1,-1,-1,-1,-1,-1,-1,-1,-1,-1,-1,-1,-1,-1,-1,-1,-1,-1,-1,-1,-1,-1,-1,-1,-1,-1,-1,-1,-1,-1,-1,-1,-1,-1,-1,-1,-1,-1,-1,-1,-1,-1,-1,-1,-1,-1,-1,-1,-1],"split_conditions":[1.08948E-3,1.0607833E-3,1.50477E5,1.0437144E-3,1.56748E5,1.5129E4,-1.6673222E-16,1.3375E4,1.60483E5,1.2348E4,8.872775E-13,1.0666254E-12,6.185867E-13,1.5562E4,4.761E3,4.531E3,5.5E1,1.5039E4,-5.1483058E-27,1.40007E5,1.53348E5,1.2614E4,3.934218E-25,1.15039E5,1.04589895E-16,1.40474E5,1.4451E4,7.1E1,1.5E2,2.0664E4,8.26E2,1.0252019E-3,2.0539439E-13,4.31E2,1.48148155E-2,1.50477E5,1.57433E5,1.99E3,1.4749E4,4.2E1,5E0,7.53E3,4.5769644E-13,1.415E3,-1.002433E-25,1.646E3,4.835821E-1,1.0219E4,1.2323E4,2.18E2,-2.057782E-24,9.66E3,1.9488E4,1.5513626E-25,1.9701493E-1,-9.7297296E-2,-1.5030743E-24,1.8947369E-1,-1.5849057E-1,1.6333E4,2.99E2,-1.3138688E-1,5.5135137E-1,-1.6283149E-1,-1.1498213E-1,3.3624682E-1,-1.1612903E-1,-8.0000006E-2,-1.6940357E-1,-1.0150638E-1,3.7466067E-1,-1.6820596E-1,-7.775833E-2,-7.065694E-2,3.2258067E-1,1.5952097E-1,5.173333E-1,2.2960289E-1,-1.4131737E-1,-0E0,8.2816905E-1,8.192771E-2,-1.6100496E-1,6.3225806E-1,-1.4681894E-1,6.640777E-1,1.3333334E-1,3.9036146E-1,9.808845E-1,-1.6237624E-1,1.9701493E-1,4.5388603E-1,-1.3953489E-1,1.0376812E0,1.0632912E-1,-1.5145633E-1,1.647059E-1,-1.2413794E-1,7.5692314E-1,5.5135137E-1,-1.5433699E-1,9.2173916E-1,-0E0,-1.6982815E-1,-8.516129E-2,5.3731345E-2,9.68116E-1,1.1516579E0,1.48148155E-2,9.0909094E-1,-2.7906979E-2],"split_indices":[512,512,365,512,365,438,517,511,365,438,515,515,515,438,220,73,363,438,516,365,365,438,518,365,517,365,0,300,64,438,0,512,515,374,0,365,365,283,438,375,8,219,515,220,516,82,0,438,228,8,518,219,438,518,0,0,516,0,0,228,510,0,0,0,0,0,0,0,0,0,0,0,0,0,0,0,0,0,0,0,0,0,0,0,0,0,0,0,0,0,0,0,0,0,0,0,0,0,0,0,0,0,0,0,0,0,0,0,0,0,0],"split_type":[0,0,0,0,0,0,0,0,0,0,0,0,0,0,0,0,0,0,0,0,0,0,0,0,0,0,0,0,0,0,0,0,0,0,0,0,0,0,0,0,0,0,0,0,0,0,0,0,0,0,0,0,0,0,0,0,0,0,0,0,0,0,0,0,0,0,0,0,0,0,0,0,0,0,0,0,0,0,0,0,0,0,0,0,0,0,0,0,0,0,0,0,0,0,0,0,0,0,0,0,0,0,0,0,0,0,0,0,0,0,0],"sum_hessian":[8.533656E3,7.66675E3,8.6690625E2,6.8317812E3,8.3496875E2,5.0225E2,3.6465625E2,5.999E3,8.3278125E2,6.5275E2,1.8221875E2,1.19E2,3.8325E2,2.209375E1,3.425625E2,1.9064062E3,4.0925938E3,6.864375E2,1.4634375E2,3.19375E1,6.208125E2,1.6209375E2,2.0125E1,7.35E1,4.55E1,7.021875E1,3.1303125E2,7.875E0,1.421875E1,3.3796875E2,4.59375E0,1.876875E3,2.953125E1,4.0910625E3,1.53125E0,5.884375E1,6.2759375E2,6.803125E1,7.83125E1,2.23125E1,9.625E0,5.9784375E2,2.296875E1,6.86875E1,9.340625E1,1.903125E1,1.09375E0,1.88125E1,5.46875E1,3.98125E1,5.6875E0,6.3E1,7.21875E0,3.119375E2,1.09375E0,1.3125E0,6.5625E0,1.96875E0,1.225E1,3.294375E2,8.53125E0,3.28125E0,1.3125E0,1.4496562E3,4.2721875E2,1.115625E1,1.8375E1,7.4375E0,4.083625E3,5.29375E1,5.90625E0,6.1075E2,1.684375E1,6.321875E1,4.8125E0,5.11875E1,2.7125E1,7.65625E0,1.465625E1,1.75E0,7.875E0,6.78125E0,5.910625E2,4.8125E0,1.815625E1,3.7625E1,3.10625E1,6.78125E0,8.6625E1,1.79375E1,1.09375E0,5.03125E0,1.378125E1,5.075E1,3.9375E0,3.7625E1,2.1875E0,2.625E0,3.0625E0,1.3125E0,6.16875E1,5.46875E0,1.75E0,2.935625E2,1.8375E1,1.09375E0,5.46875E0,3.2790625E2,1.53125E0,4.15625E0,4.375E0],"tree_param":{"num_deleted":"0","num_feature":"519","num_nodes":"111","size_leaf_vector":"1"}},{"base_weights":[-2.1926777E-1,4.2902225E-1,-4.4003808E-1,3.33654E0,-1.8232843E-1,-4.770276E-1,3.3073056E-1,3.6038752E0,5.944798E-2,-4.754868E-1,5.864244E-1,-2.7756533E-1,-5.19581E-1,2.2589772E0,-1.4052764E-1,3.680703E0,-1.25E-1,-1.6363637E-1,1.6296296E0,-1.7055988E-1,-5.205184E-1,2.1427212E0,2.4657534E-2,2.3225806E0,-3.9525595E-1,-4.4781575E-1,-5.5282533E-1,3.3890214E0,-1.761827E-1,4.5007923E-1,-4.347654E-1,-1.10091746E-1,3.7079377E0,3.4029853E-1,-1.4660634E-1,2.7486033E0,-1.2682928E-1,8.2573724E-1,-3.2820514E-1,-5.5799353E-1,-3.390695E-1,2.71661E0,1.1475204E0,-4.9843457E-1,6.521413E-1,2.7088609E0,1.25E-1,-4.9155036E-1,1.4838709E-1,1.9052925E0,-4.8118564E-1,-5.6566805E-1,-5.1564807E-1,3.6453538E0,-1.3793103E-1,7.821229E-1,-1.5965666E-1,2.162162E0,-7.3319755E-2,-4.946058E-1,7.148289E-1,-9.7297296E-2,5.3731345E-2,1.1218417E0,4.041451E-1,1.9701493E-1,9.333334E-1,3.8740158E-1,-4.4444446E-2,2.6452908E-2,-1.3117933E-1,-1.6771433E-1,5.3731345E-2,-1.3614437E-1,1.7383967E-1,8.789686E-1,-1.4300519E-1,5.872341E-1,2.0471255E-1,-1.5970318E-1,1.5746608E-1,5.2173916E-2,4.8325795E-1,9.0461546E-1,3.375E-1,-1.3953489E-1,2.8965518E-1,-1.6645598E-1,-9.51161E-2,-1.2705883E-1,2.4929579E-1,8.359282E-1,-3.3734944E-2,-5.0516285E-2,-1.5188566E-1,-1.6981833E-1,5.3731345E-2,-1.5568003E-1,2.5185186E-1,1.1156415E0,1.9701493E-1,-1.0370371E-1,5.3731345E-2,4.9541286E-1,-1.1764707E-1,8.057495E-1,-6.131387E-2,2.0591716E-1,-1.3818182E-1,-1.5216936E-1,1.3333334E-1,-1.3953489E-1,6.5365857E-1],"categories":[],"categories_nodes":[],"categories_segments":[],"categories_sizes":[],"default_left":[0,0,0,0,0,0,0,0,0,0,0,0,0,0,0,0,0,0,0,0,0,0,0,0,0,0,0,0,0,0,0,0,0,0,0,0,0,0,0,0,0,0,0,0,0,0,0,0,0,0,0,0,0,0,0,0,0,0,0,0,0,0,0,0,0,0,0,0,0,0,0,0,0,0,0,0,0,0,0,0,0,0,0,0,0,0,0,0,0,0,0,0,0,0,0,0,0,0,0,0,0,0,0,0,0,0,0,0,0,0,0,0,0],"id":2,"left_children":[1,3,5,7,9,11,13,15,17,19,21,23,25,27,29,31,33,-1,35,37,39,41,43,45,47,49,51,53,55,57,59,61,63,-1,-1,65,-1,67,69,71,73,75,77,79,81,83,85,87,89,91,93,95,97,99,101,103,-1,105,107,109,111,-1,-1,-1,-1,-1,-1,-1,-1,-1,-1,-1,-1,-1,-1,-1,-1,-1,-1,-1,-1,-1,-1,-1,-1,-1,-1,-1,-1,-1,-1,-1,-1,-1,-1,-1,-1,-1,-1,-1,-1,-1,-1,-1,-1,-1,-1,-1,-1,-1,-1,-1,-1],"loss_changes":[1.221696E3,3.8553118E3,1.8168506E2,3.299043E2,4.0431134E2,5.1426758E1,2.658004E2,1.0026318E2,2.8848827E1,1.7740082E1,4.3304166E2,3.284952E2,1.1696655E1,1.5865579E2,4.1158607E1,3.5652344E1,4.2183514E0,0E0,2.0539362E1,2.6745691E1,7.5003357E0,7.191547E1,1.2012965E2,3.91344E1,5.3729828E1,1.2578546E2,1.3399658E0,3.60159E1,6.9516344E0,7.0838615E1,1.1211977E1,2.6912302E-1,2.0197266E1,0E0,0E0,2.1987648E0,0E0,1.0762183E1,6.6798067E0,8.272705E-1,2.0934027E1,5.764978E1,1.7418549E1,7.206444E0,7.60005E1,1.5784576E1,4.417101E0,9.444931E0,6.086232E1,4.0205025E1,1.2231567E1,8.4173584E-1,4.3921814E0,5.6045227E0,3.006678E-1,6.3573995E0,0E0,2.3475716E1,1.8374239E1,2.0112267E0,1.5211138E1,0E0,0E0,0E0,0E0,0E0,0E0,0E0,0E0,0E0,0E0,0E0,0E0,0E0,0E0,0E0,0E0,0E0,0E0,0E0,0E0,0E0,0E0,0E0,0E0,0E0,0E0,0E0,0E0,0E0,0E0,0E0,0E0,0E0,0E0,0E0,0E0,0E0,0E0,0E0,0E0,0E0,0E0,0E0,0E0,0E0,0E0,0E0,0E0,0E0,0E0,0E0,0E0],"parents":[2147483647,0,0,1,1,2,2,3,3,4,4,5,5,6,6,7,7,8,8,9,9,10,10,11,11,12,12,13,13,14,14,15,15,16,16,18,18,19,19,20,20,21,21,22,22,23,23,24,24,25,25,26,26,27,27,28,28,29,29,30,30,31,31,32,32,35,35,37,37,38,38,39,39,40,40,41,41,42,42,43,43,44,44,45,45,46,46,47,47,48,48,49,49,50,50,51,51,52,52,53,53,54,54,55,55,57,57,58,58,59,59,60,60],"right_children":[2,4,6,8,10,12,14,16,18,20,22,24,26,28,30,32,34,-1,36,38,40,42,44,46,48,50,52,54,56,58,60,62,64,-1,-1,66,-1,68,70,72,74,76,78,80,82,84,86,88,90,92,94,96,98,100,102,104,-1,106,108,110,112,-1,-1,-1,-1,-1,-1,-1,-1,-1,-1,-1,-1,-1,-1,-1,-1,-1,-1,-1,-1,-1,-1,-1,-1,-1,-1,-1,-1,-1,-1,-1,-1,-1,-1,-1,-1,-1,-1,-1,-1,-1,-1,-1,-1,-1,-1,-1,-1,-1,-1,-1,-1],"split_conditions":[1.0659005E-13,-5.093375E-17,1.0735798E-25,1.78814E5,2.4083E4,1.8435447E-13,2.4199853E-13,6.9340665E-8,2.0031E4,1.50276E5,-7.878986E-18,-1.1304882E-16,3.4220936E-13,-6.97142E-17,-1.6074574E-16,1.3292E4,-1.4844724E-16,-1.6363637E-1,1.89925E5,-2.0943308E-17,1.9958E4,5.717572E-14,4.8922637E-8,1.04E2,2.8233E4,-2.3031691E-16,-3.5121946E-25,2.093E3,1.46828E5,4.001928E-13,3.0725E4,5.94E2,1.336E3,3.4029853E-1,-1.4660634E-1,4.26E2,-1.2682928E-1,6.384014E-8,2.3456778E-14,4E0,7.354E3,1.93321E5,-3.1140263E-17,2.78E2,3.0725E4,-1.2777877E-16,-7.8315115E-26,2.0445E4,-5.812965E-26,1.02E2,-1.2162727E-16,2.44E2,2.0291306E-12,1.06E2,3.3E1,-1.2324042E-26,-1.5965666E-1,2.973E3,5.8E1,9.2E1,3E1,-9.7297296E-2,5.3731345E-2,1.1218417E0,4.041451E-1,1.9701493E-1,9.333334E-1,3.8740158E-1,-4.4444446E-2,2.6452908E-2,-1.3117933E-1,-1.6771433E-1,5.3731345E-2,-1.3614437E-1,1.7383967E-1,8.789686E-1,-1.4300519E-1,5.872341E-1,2.0471255E-1,-1.5970318E-1,1.5746608E-1,5.2173916E-2,4.8325795E-1,9.0461546E-1,3.375E-1,-1.3953489E-1,2.8965518E-1,-1.6645598E-1,-9.51161E-2,-1.2705883E-1,2.4929579E-1,8.359282E-1,-3.3734944E-2,-5.0516285E-2,-1.5188566E-1,-1.6981833E-1,5.3731345E-2,-1.5568003E-1,2.5185186E-1,1.1156415E0,1.9701493E-1,-1.0370371E-1,5.3731345E-2,4.9541286E-1,-1.1764707E-1,8.057495E-1,-6.131387E-2,2.0591716E-1,-1.3818182E-1,-1.5216936E-1,1.3333334E-1,-1.3953489E-1,6.5365857E-1],"split_indices":[514,517,518,365,438,514,514,513,438,365,517,517,514,517,517,438,517,0,365,517,438,514,513,72,438,517,518,0,365,514,438,0,291,0,0,147,0,513,514,172,301,365,517,284,438,517,518,438,518,72,517,509,515,72,8,516,0,0,72,347,156,0,0,0,0,0,0,0,0,0,0,0,0,0,0,0,0,0,0,0,0,0,0,0,0,0,0,0,0,0,0,0,0,0,0,0,0,0,0,0,0,0,0,0,0,0,0,0,0,0,0,0,0],"split_type":[0,0,0,0,0,0,0,0,0,0,0,0,0,0,0,0,0,0,0,0,0,0,0,0,0,0,0,0,0,0,0,0,0,0,0,0,0,0,0,0,0,0,0,0,0,0,0,0,0,0,0,0,0,0,0,0,0,0,0,0,0,0,0,0,0,0,0,0,0,0,0,0,0,0,0,0,0,0,0,0,0,0,0,0,0,0,0,0,0,0,0,0,0,0,0,0,0,0,0,0,0,0,0,0,0,0,0,0,0,0,0,0,0],"sum_hessian":[8.533656E3,2.1675938E3,6.3660625E3,3.758125E2,1.7917812E3,6.0749062E3,2.9115625E2,3.47375E2,2.84375E1,1.2974062E3,4.94375E2,1.0694688E3,5.0054375E3,5.64375E1,2.3471875E2,3.40375E2,7E0,2.1E1,7.4375E0,1.675625E2,1.1298438E3,1.30375E2,3.64E2,4.55E1,1.02396875E3,1.5892188E3,3.4162188E3,3.828125E1,1.815625E1,7.7875E1,1.5684375E2,2.40625E0,3.3796875E2,1.09375E0,5.90625E0,4.59375E0,2.84375E0,2.23125E1,1.4525E2,9.3471875E2,1.95125E2,8.159375E1,4.878125E1,1.98625E2,1.65375E2,3.85E1,7E0,8.6996875E2,1.54E2,2.14375E1,1.5677812E3,2.5285312E3,8.876875E2,3.565625E1,2.625E0,4.59375E0,1.35625E1,1.75E1,6.0375E1,1.49625E2,7.21875E0,1.3125E0,1.09375E0,3.329375E2,5.03125E0,1.09375E0,3.5E0,1.4875E1,7.4375E0,3.01875E1,1.150625E2,9.33625E2,1.09375E0,1.7390625E2,2.121875E1,7.65625E1,5.03125E0,1.6625E1,3.215625E1,1.9271875E2,5.90625E0,1.11125E2,5.425E1,3.15E1,7E0,4.375E0,2.625E0,6.3678125E2,2.331875E2,8.4E1,7E1,1.465625E1,6.78125E0,1.1703125E2,1.45075E3,2.5274375E3,1.09375E0,8.8615625E2,1.53125E0,3.45625E1,1.09375E0,1.53125E0,1.09375E0,2.40625E0,2.1875E0,1.421875E1,3.28125E0,2.0125E1,4.025E1,1.4809375E2,1.53125E0,4.375E0,2.84375E0],"tree_param":{"num_deleted":"0","num_feature":"519","num_nodes":"113","size_leaf_vector":"1"}},{"base_weights":[-5.29415E-1,-5.54473E-1,2.591472E0,-5.6144124E-1,2.9776676E-2,1.2419522E0,3.5648E0,-5.6658745E-1,-4.578726E-1,-3.0961472E-1,2.6346667E0,1.7910448E-1,2.3965142E0,1.6216215E-1,3.6556292E0,-5.020821E-1,-5.6826144E-1,-5.2890706E-1,1.776675E0,-3.9010188E-1,1.0909091E0,-1.0370371E-1,3.1165645E0,1.5813954E0,-4.4444445E-1,2.976E0,-1.3793103E-1,3.7255576E0,2.918919E-1,-5.19774E-1,1.352657E-1,-5.683895E-1,-7.8431375E-2,-5.4866815E-1,3.539823E-2,2.7148595E0,2.1505377E-1,-4.523902E-1,4.4444445E-1,1.6585366E0,-9.7297296E-2,2.5185186E-1,1.0267148E0,7.59633E-1,-1.263158E-2,-1.5623268E-1,5.3731345E-2,-9.7297296E-2,1.0270271E0,5.3731345E-2,-1.0370371E-1,1.1320956E0,3.4029853E-1,-1.5864533E-1,-0E0,-1.3953489E-1,4.835821E-1,-1.7115742E-1,-1.6060567E-1,5.3731345E-2,-8.955224E-2,-1.6689013E-1,-5.6375843E-2,-1.5302014E-1,2.7096775E-1,9.3084115E-1,5.3731345E-2,-1.2682928E-1,2.9052633E-1,1.8947369E-1,-1.4629483E-1,3.4146342E-1,-1.2413794E-1,5.3731345E-2,6.545455E-1],"categories":[],"categories_nodes":[],"categories_segments":[],"categories_sizes":[],"default_left":[0,0,0,0,0,0,0,0,0,0,0,0,0,0,0,0,0,0,0,0,0,0,0,0,0,0,0,0,0,0,0,0,0,0,0,0,0,0,0,0,0,0,0,0,0,0,0,0,0,0,0,0,0,0,0,0,0,0,0,0,0,0,0,0,0,0,0,0,0,0,0,0,0,0,0],"id":3,"left_children":[1,3,5,7,9,11,13,15,17,19,21,23,25,-1,27,29,31,33,35,37,39,-1,41,43,45,47,49,51,-1,53,55,57,59,61,63,65,67,69,71,73,-1,-1,-1,-1,-1,-1,-1,-1,-1,-1,-1,-1,-1,-1,-1,-1,-1,-1,-1,-1,-1,-1,-1,-1,-1,-1,-1,-1,-1,-1,-1,-1,-1,-1,-1],"loss_changes":[6.688738E2,3.4489746E1,8.5097626E1,4.2006836E0,8.988651E1,3.6499523E1,8.754089E0,5.749512E-1,6.463997E1,1.0574266E1,1.790805E1,1.5348991E1,2.1476791E1,0E0,3.456787E0,2.439659E0,4.4189453E-1,4.3652954E0,1.7867123E1,4.665059E0,4.6800504E0,0E0,4.221115E0,8.402851E0,6.822765E-1,1.8414696E1,3.006678E-1,2.604065E-1,0E0,9.620285E-1,6.4847317E0,2.4169922E-1,2.341235E-1,9.323349E-1,7.1470547E0,7.098934E0,3.2023852E0,3.3811054E0,4.322587E0,2.5849028E0,0E0,0E0,0E0,0E0,0E0,0E0,0E0,0E0,0E0,0E0,0E0,0E0,0E0,0E0,0E0,0E0,0E0,0E0,0E0,0E0,0E0,0E0,0E0,0E0,0E0,0E0,0E0,0E0,0E0,0E0,0E0,0E0,0E0,0E0,0E0],"parents":[2147483647,0,0,1,1,2,2,3,3,4,4,5,5,6,6,7,7,8,8,9,9,10,10,11,11,12,12,14,14,15,15,16,16,17,17,18,18,19,19,20,20,22,22,23,23,24,24,25,25,26,26,27,27,29,29,30,30,31,31,32,32,33,33,34,34,35,35,36,36,37,37,38,38,39,39],"right_children":[2,4,6,8,10,12,14,16,18,20,22,24,26,-1,28,30,32,34,36,38,40,-1,42,44,46,48,50,52,-1,54,56,58,60,62,64,66,68,70,72,74,-1,-1,-1,-1,-1,-1,-1,-1,-1,-1,-1,-1,-1,-1,-1,-1,-1,-1,-1,-1,-1,-1,-1,-1,-1,-1,-1,-1,-1,-1,-1,-1,-1,-1,-1],"split_conditions":[2.16513E5,2.11046E5,5.25414E-8,2.02867E5,5.732543E-8,2.2082E5,5.46E2,5.333E3,6.0491146E-8,1.839E3,5.8E1,9.27E2,2.4668E4,1.6216215E-1,1.6775E4,8.186E3,4E0,5.7917315E-8,1.8055E4,1.8672374E-27,3.36E3,-1.0370371E-1,2E1,7.293424E-14,4.8E1,-1.4411864E-27,1E0,2.041E3,2.918919E-1,1.9E1,1.46099E5,1.93823E5,7.9E2,1.72E2,3.25E2,7.1E1,2E1,4.3788825E-15,1.4537E4,1.92E2,-9.7297296E-2,2.5185186E-1,1.0267148E0,7.59633E-1,-1.263158E-2,-1.5623268E-1,5.3731345E-2,-9.7297296E-2,1.0270271E0,5.3731345E-2,-1.0370371E-1,1.1320956E0,3.4029853E-1,-1.5864533E-1,-0E0,-1.3953489E-1,4.835821E-1,-1.7115742E-1,-1.6060567E-1,5.3731345E-2,-8.955224E-2,-1.6689013E-1,-5.6375843E-2,-1.5302014E-1,2.7096775E-1,9.3084115E-1,5.3731345E-2,-1.2682928E-1,2.9052633E-1,1.8947369E-1,-1.4629483E-1,3.4146342E-1,-1.2413794E-1,5.3731345E-2,6.545455E-1],"split_indices":[365,365,513,365,513,365,73,219,513,228,74,366,438,0,438,429,208,513,292,516,146,0,446,515,138,516,64,366,0,500,365,365,0,9,82,72,81,514,292,147,0,0,0,0,0,0,0,0,0,0,0,0,0,0,0,0,0,0,0,0,0,0,0,0,0,0,0,0,0,0,0,0,0,0,0],"split_type":[0,0,0,0,0,0,0,0,0,0,0,0,0,0,0,0,0,0,0,0,0,0,0,0,0,0,0,0,0,0,0,0,0,0,0,0,0,0,0,0,0,0,0,0,0,0,0,0,0,0,0,0,0,0,0,0,0,0,0,0,0,0,0,0,0,0,0,0,0,0,0,0,0,0,0],"sum_hessian":[8.533656E3,8.4665E3,6.715625E1,8.36675E3,9.975E1,2.909375E1,3.80625E1,7.9664375E3,4.003125E2,8.903125E1,1.071875E1,1.575E1,1.334375E1,1.3125E0,3.675E1,2.09125E2,7.7573125E3,3.8871875E2,1.159375E1,8.4875E1,4.15625E0,1.53125E0,9.1875E0,4.375E0,1.1375E1,1.071875E1,2.625E0,3.54375E1,1.3125E0,2.0365625E2,5.46875E0,7.755125E3,2.1875E0,3.7559375E2,1.3125E1,6.78125E0,4.8125E0,7.940625E1,5.46875E0,2.84375E0,1.3125E0,1.53125E0,7.65625E0,2.40625E0,1.96875E0,1.028125E1,1.09375E0,1.3125E0,9.40625E0,1.09375E0,1.53125E0,3.434375E1,1.09375E0,2.0015625E2,3.5E0,4.375E0,1.09375E0,7.2690625E3,4.860625E2,1.09375E0,1.09375E0,3.6728125E2,8.3125E0,8.3125E0,4.8125E0,5.6875E0,1.09375E0,2.84375E0,1.96875E0,1.96875E0,7.74375E1,2.84375E0,2.625E0,1.09375E0,1.75E0],"tree_param":{"num_deleted":"0","num_feature":"519","num_nodes":"75","size_leaf_vector":"1"}},{"base_weights":[3.8621943E-2,-5.092433E-1,1.521194E0,6.7743205E-2,-5.483729E-1,8.556314E-2,2.3061748E0,-2.659996E-1,1.0890521E0,-5.5896056E-1,-3.170909E-1,2.0200074E0,-1.3749519E-1,2.6025274E0,1.9639935E-2,1.8204182E-1,-4.9325386E-1,2.6256263E0,-1.4479639E-1,-1.1581292E-1,-5.6336117E-1,-3.8192457E-1,1.815261E0,8.951487E-1,2.9649003E0,-4.14318E-1,5.650535E-1,6.1245614E-1,2.9292696E0,7.08134E-1,-3.987213E-1,-3.1161195E-1,9.8793244E-1,-3.5609335E-1,-1.7008798E-1,3.056445E0,1.6528925E-1,9.315069E-1,-4.8751837E-1,-4.8070562E-1,2.47557E-1,-4.8125204E-1,-5.693729E-1,3.5569423E-1,-4.4396552E-1,2.4E0,-1.0370371E-1,1.3333334E0,-1.5460123E-1,1.0704225E0,3.3338885E0,1.9000617E-1,-4.7777268E-1,-1.4451928E-1,1.2415416E0,1.5805992E0,-2.3748834E-1,2.505787E0,3.6193535E0,1.1726028E0,-3.5045317E-1,1.0642202E0,-4.4233057E-1,5.5135137E-1,-1.1585794E-1,6.4000005E-1,7.6981135E-2,2.0689656E-1,-1.2161436E-1,3.0280375E-1,1.0185075E0,3.703704E-1,-9.326425E-2,5.0685924E-1,-9.326425E-2,-1.6006029E-1,1.9701493E-1,-1.5412845E-1,5.3731345E-2,1.4373259E-1,-1.4808512E-1,-2.4423338E-2,-1.6028081E-1,-0E0,-1.7087002E-1,-9.557523E-2,5.049774E-1,-1.4340052E-1,5.268293E-2,1.48148155E-2,9.4569534E-1,4.9478677E-1,-1.3953489E-1,6.5316457E-1,-7.594937E-2,2.8965518E-1,1.0453E0,-1.1125828E-1,5.096629E-1,-1.6140817E-1,-7.423065E-2,2.4324325E-1,-1.0554324E-1,1.4494017E-1,6.274953E-1,6.383481E-1,3.8902745E-2,-1.10367246E-1,6.418605E-1,2.784E-1,8.2302E-1,6.0103035E-1,1.1535536E0,-9.7297296E-2,4.710958E-1,7.374302E-2,-1.607767E-1,5.5135137E-1,-8.955224E-2,-6.294755E-2,-1.689294E-1],"categories":[],"categories_nodes":[],"categories_segments":[],"categories_sizes":[],"default_left":[0,0,0,0,0,0,0,0,0,0,0,0,0,0,0,0,0,0,0,0,0,0,0,0,0,0,0,0,0,0,0,0,0,0,0,0,0,0,0,0,0,0,0,0,0,0,0,0,0,0,0,0,0,0,0,0,0,0,0,0,0,0,0,0,0,0,0,0,0,0,0,0,0,0,0,0,0,0,0,0,0,0,0,0,0,0,0,0,0,0,0,0,0,0,0,0,0,0,0,0,0,0,0,0,0,0,0,0,0,0,0,0,0,0,0,0,0,0,0,0,0],"id":4,"left_children":[1,3,5,7,9,11,13,15,17,19,21,23,25,27,29,31,33,35,37,39,41,43,45,47,49,51,53,55,57,59,61,63,65,67,-1,69,71,73,75,77,79,81,83,85,87,89,-1,91,-1,93,95,97,99,101,103,105,107,109,111,113,115,117,119,-1,-1,-1,-1,-1,-1,-1,-1,-1,-1,-1,-1,-1,-1,-1,-1,-1,-1,-1,-1,-1,-1,-1,-1,-1,-1,-1,-1,-1,-1,-1,-1,-1,-1,-1,-1,-1,-1,-1,-1,-1,-1,-1,-1,-1,-1,-1,-1,-1,-1,-1,-1,-1,-1,-1,-1,-1,-1],"loss_changes":[6.9330474E3,1.4075049E2,2.595292E3,1.3551303E2,1.4115601E1,3.5202618E2,1.0088838E3,3.0616497E1,1.8600064E2,1.0816284E1,3.6335396E1,8.699249E1,1.4256418E2,8.552842E2,4.978009E1,4.073742E1,1.8118095E0,4.5768616E1,2.0834347E1,7.5606737E0,2.453247E0,1.1645752E1,1.0661905E1,2.5370625E1,2.817212E1,2.0244629E1,9.967806E1,1.5438022E2,3.217256E2,3.2523834E1,7.3309917E0,1.0934433E1,3.1990612E1,4.006752E0,0E0,2.2283173E1,4.2343144E0,1.3415575E1,2.591426E0,7.102108E-1,5.1759357E0,8.083473E0,5.675049E-1,1.846718E1,4.9763565E0,1.08969E1,0E0,1.82402E1,0E0,1.35525055E1,1.0008514E1,4.3499203E1,6.471916E0,2.0496872E1,6.747182E1,6.929707E1,3.1948755E1,2.6165527E2,1.4855957E2,2.7672256E1,2.4195335E0,4.1395802E0,2.8336601E0,0E0,0E0,0E0,0E0,0E0,0E0,0E0,0E0,0E0,0E0,0E0,0E0,0E0,0E0,0E0,0E0,0E0,0E0,0E0,0E0,0E0,0E0,0E0,0E0,0E0,0E0,0E0,0E0,0E0,0E0,0E0,0E0,0E0,0E0,0E0,0E0,0E0,0E0,0E0,0E0,0E0,0E0,0E0,0E0,0E0,0E0,0E0,0E0,0E0,0E0,0E0,0E0,0E0,0E0,0E0,0E0,0E0,0E0],"parents":[2147483647,0,0,1,1,2,2,3,3,4,4,5,5,6,6,7,7,8,8,9,9,10,10,11,11,12,12,13,13,14,14,15,15,16,16,17,17,18,18,19,19,20,20,21,21,22,22,23,23,24,24,25,25,26,26,27,27,28,28,29,29,30,30,31,31,32,32,33,33,35,35,36,36,37,37,38,38,39,39,40,40,41,41,42,42,43,43,44,44,45,45,47,47,49,49,50,50,51,51,52,52,53,53,54,54,55,55,56,56,57,57,58,58,59,59,60,60,61,61,62,62],"right_children":[2,4,6,8,10,12,14,16,18,20,22,24,26,28,30,32,34,36,38,40,42,44,46,48,50,52,54,56,58,60,62,64,66,68,-1,70,72,74,76,78,80,82,84,86,88,90,-1,92,-1,94,96,98,100,102,104,106,108,110,112,114,116,118,120,-1,-1,-1,-1,-1,-1,-1,-1,-1,-1,-1,-1,-1,-1,-1,-1,-1,-1,-1,-1,-1,-1,-1,-1,-1,-1,-1,-1,-1,-1,-1,-1,-1,-1,-1,-1,-1,-1,-1,-1,-1,-1,-1,-1,-1,-1,-1,-1,-1,-1,-1,-1,-1,-1,-1,-1,-1,-1],"split_conditions":[1.70426E5,1.3535E4,1.4823E4,1.61808E5,1.64026E5,1.88245E5,4.531E3,1.0631906E-3,4.173E3,1.1239E4,6.518E3,6.777E3,9.808277E-14,-3.9958826E-17,5.777E3,1.28055E5,3.3E1,7.651E3,5.777E3,4.8793714E-28,1.6437E4,6.8E1,7.95E2,1.578E3,3.9E1,1.96057E5,-2.3149627E-26,4.282792E-13,3.2163286E-27,7.4E1,5.9981836E-8,5.109141E-8,1.4E3,1.37E3,-1.7008798E-1,3E0,1.05E2,8.01E2,5.826E3,1E0,8E1,5.9482435E-8,8.711523E-4,1.7625414E-27,1.2172E4,1E0,-1.0370371E-1,9.841E3,-1.5460123E-1,3.092E3,3E0,3.99E2,1.3079E4,2.2942062E-13,1.4158325E-13,6.014671E-27,9.511E3,5.217823E-8,-9.93533E-18,-7.1950123E-26,6.2054085E-8,9.3E1,7.261E3,5.5135137E-1,-1.1585794E-1,6.4000005E-1,7.6981135E-2,2.0689656E-1,-1.2161436E-1,3.0280375E-1,1.0185075E0,3.703704E-1,-9.326425E-2,5.0685924E-1,-9.326425E-2,-1.6006029E-1,1.9701493E-1,-1.5412845E-1,5.3731345E-2,1.4373259E-1,-1.4808512E-1,-2.4423338E-2,-1.6028081E-1,-0E0,-1.7087002E-1,-9.557523E-2,5.049774E-1,-1.4340052E-1,5.268293E-2,1.48148155E-2,9.4569534E-1,4.9478677E-1,-1.3953489E-1,6.5316457E-1,-7.594937E-2,2.8965518E-1,1.0453E0,-1.1125828E-1,5.096629E-1,-1.6140817E-1,-7.423065E-2,2.4324325E-1,-1.0554324E-1,1.4494017E-1,6.274953E-1,6.383481E-1,3.8902745E-2,-1.10367246E-1,6.418605E-1,2.784E-1,8.2302E-1,6.0103035E-1,1.1535536E0,-9.7297296E-2,4.710958E-1,7.374302E-2,-1.607767E-1,5.5135137E-1,-8.955224E-2,-6.294755E-2,-1.689294E-1],"split_indices":[365,438,292,365,365,365,73,512,73,292,228,374,514,517,73,365,72,146,73,516,438,373,364,0,510,365,516,515,518,72,513,513,366,374,0,237,510,364,155,427,284,513,512,518,301,355,0,219,0,146,383,437,292,515,514,518,301,513,517,518,513,1,73,0,0,0,0,0,0,0,0,0,0,0,0,0,0,0,0,0,0,0,0,0,0,0,0,0,0,0,0,0,0,0,0,0,0,0,0,0,0,0,0,0,0,0,0,0,0,0,0,0,0,0,0,0,0,0,0,0,0],"split_type":[0,0,0,0,0,0,0,0,0,0,0,0,0,0,0,0,0,0,0,0,0,0,0,0,0,0,0,0,0,0,0,0,0,0,0,0,0,0,0,0,0,0,0,0,0,0,0,0,0,0,0,0,0,0,0,0,0,0,0,0,0,0,0,0,0,0,0,0,0,0,0,0,0,0,0,0,0,0,0,0,0,0,0,0,0,0,0,0,0,0,0,0,0,0,0,0,0,0,0,0,0,0,0,0,0,0,0,0,0,0,0,0,0,0,0,0,0,0,0,0,0],"sum_hessian":[8.533656E3,6.2315312E3,2.302125E3,3.9571875E2,5.8358125E3,8.141875E2,1.4879375E3,2.988125E2,9.690625E1,5.579E3,2.568125E2,8.334375E1,7.3084375E2,1.3170938E3,1.7084375E2,1.00625E2,1.981875E2,4.265625E1,5.425E1,5.5125E1,5.523875E3,2.5003125E2,6.78125E0,3.89375E1,4.440625E1,5.245625E2,2.0628125E2,1.8615625E2,1.1309375E3,6.43125E1,1.0653125E2,6.278125E1,3.784375E1,7.13125E1,1.26875E2,3.609375E1,6.5625E0,1.26875E1,4.15625E1,2.734375E1,2.778125E1,3.82375E2,5.1415E3,1.903125E1,2.31E2,5.25E0,1.53125E0,2.975E1,9.1875E0,7.875E0,3.653125E1,4.965625E1,4.7490625E2,1.010625E2,1.0521875E2,8.6625E1,9.953125E1,7.0371875E2,4.2721875E2,4.4625E1,1.96875E1,2.40625E0,1.04125E2,1.3125E0,6.146875E1,1.4E1,2.384375E1,2.625E0,6.86875E1,5.6875E0,3.040625E1,1.53125E0,5.03125E0,7.65625E0,5.03125E0,4.046875E1,1.09375E0,2.625E1,1.09375E0,2.14375E1,6.34375E0,4.50625E1,3.373125E2,1.75E0,5.13975E3,1.3125E1,5.90625E0,2.191875E2,1.18125E1,1.53125E0,3.71875E0,2.5375E1,4.375E0,3.9375E0,3.9375E0,2.625E0,3.390625E1,3.675E1,1.290625E1,3.75375E2,9.953125E1,1.75E1,8.35625E1,5.64375E1,4.878125E1,6.25625E1,2.40625E1,9.515625E1,4.375E0,9.275E1,6.1096875E2,5.359375E1,3.73625E2,9.40625E0,3.521875E1,4.59375E0,1.509375E1,1.3125E0,1.09375E0,3.653125E1,6.759375E1],"tree_param":{"num_deleted":"0","num_feature":"519","num_nodes":"121","size_leaf_vector":"1"}},{"base_weights":[-1.6009726E-1,-4.7806823E-1,2.3275406E0,-5.061597E-1,2.6106033E0,3.469943E0,6.891362E-1,5.491234E-1,-5.4752153E-1,3.6312916E0,-4.8336253E-1,3.577637E0,1.3041575E0,1.4286152E0,-8.3585896E-2,-1.01831175E-1,2.375839E0,-5.61476E-1,-1.1945997E-1,1.1450382E0,-1.10091746E-1,5.3731345E-2,-1.6119404E-1,3.6463983E0,7.930283E-1,5.7494868E-2,2.5359478E0,2.6105125E0,3.782235E-1,2.5284973E-1,-3.68761E-1,4.110981E-1,-4.143198E-1,3.1351352E0,7.106599E-1,6.268657E-1,-5.621898E-1,1.729373E0,-2.846575E-1,5.3731345E-2,-9.7297296E-2,3.8018713E0,2.6639106E0,2.2795699E0,-1.9672132E-1,1.398374E0,-3.6363637E-1,3.0960453E0,4.9635038E-1,1.4861368E0,3.173373E0,2.6137185E0,1.8366718E-1,-1.1143451E-1,1.9157088E0,-4.673913E-1,2.4291497E-1,5.0899744E-1,5.3405996E-2,-1.5895395E-1,5.454546E-2,1.0055368E0,2.3463689E-1,8.020726E-1,2.1052632E-2,-1.7067072E-1,-1.3757353E-1,9.836066E-2,8.540541E-1,2.8660196E-1,-1.15487576E-1,1.1477824E0,5.263158E-1,3.4754097E-1,9.7661436E-1,2.5882354E-1,8.689655E-1,-1.5111113E-1,3.4029853E-1,-8.955224E-2,6.545455E-1,1.6216215E-1,-1.5593222E-1,9.893417E-1,1.9701493E-1,4.2162165E-1,-1.13684215E-1,7.4556214E-1,-4.931507E-2,1.0096463E0,1.810056E-1,9.223141E-1,-8.955224E-2,-5.6037027E-2,3.466667E-1,1.7404582E-1,-1.0909092E-1,7.245283E-1,-5.5384617E-2,-1.5525249E-1,3.1939164E-2,3.8545457E-1,-7.64543E-2],"categories":[],"categories_nodes":[],"categories_segments":[],"categories_sizes":[],"default_left":[0,0,0,0,0,0,0,0,0,0,0,0,0,0,0,0,0,0,0,0,0,0,0,0,0,0,0,0,0,0,0,0,0,0,0,0,0,0,0,0,0,0,0,0,0,0,0,0,0,0,0,0,0,0,0,0,0,0,0,0,0,0,0,0,0,0,0,0,0,0,0,0,0,0,0,0,0,0,0,0,0,0,0,0,0,0,0,0,0,0,0,0,0,0,0,0,0,0,0,0,0,0,0],"id":5,"left_children":[1,3,5,7,9,11,13,15,17,19,21,23,25,27,29,31,33,35,37,-1,39,-1,-1,41,43,45,47,49,51,53,55,57,59,61,63,-1,65,67,69,-1,-1,71,73,75,77,79,81,83,85,87,89,91,93,95,97,99,101,-1,-1,-1,-1,-1,-1,-1,-1,-1,-1,-1,-1,-1,-1,-1,-1,-1,-1,-1,-1,-1,-1,-1,-1,-1,-1,-1,-1,-1,-1,-1,-1,-1,-1,-1,-1,-1,-1,-1,-1,-1,-1,-1,-1,-1,-1],"loss_changes":[6.751997E3,6.579807E2,1.8083779E3,3.2770056E2,2.1768176E2,1.2822412E2,2.2793414E2,3.372428E2,4.3051514E1,3.6184692E1,7.3398304E-1,1.0092285E2,4.3715534E1,2.5199796E2,1.8889088E1,3.3815056E1,9.19671E1,1.4403076E1,7.048178E1,0E0,2.6912302E-1,0E0,0E0,7.065283E1,2.1552456E1,9.102316E0,1.4849197E1,5.5861145E1,4.6954464E1,5.501523E1,6.5348873E0,2.3659466E1,9.113981E0,2.3314117E1,3.0771345E1,0E0,4.6000977E0,2.8725464E1,2.6637691E1,0E0,0E0,1.5674805E1,6.3539185E1,2.5820408E0,4.4659176E0,5.761216E0,2.0280128E0,3.2787933E0,3.9391387E0,5.6164856E1,2.9028625E1,1.2530529E1,3.672647E1,1.3319685E1,1.7555576E1,2.7010078E0,8.333877E0,0E0,0E0,0E0,0E0,0E0,0E0,0E0,0E0,0E0,0E0,0E0,0E0,0E0,0E0,0E0,0E0,0E0,0E0,0E0,0E0,0E0,0E0,0E0,0E0,0E0,0E0,0E0,0E0,0E0,0E0,0E0,0E0,0E0,0E0,0E0,0E0,0E0,0E0,0E0,0E0,0E0,0E0,0E0,0E0,0E0,0E0],"parents":[2147483647,0,0,1,1,2,2,3,3,4,4,5,5,6,6,7,7,8,8,9,9,10,10,11,11,12,12,13,13,14,14,15,15,16,16,17,17,18,18,20,20,23,23,24,24,25,25,26,26,27,27,28,28,29,29,30,30,31,31,32,32,33,33,34,34,36,36,37,37,38,38,41,41,42,42,43,43,44,44,45,45,46,46,47,47,48,48,49,49,50,50,51,51,52,52,53,53,54,54,55,55,56,56],"right_children":[2,4,6,8,10,12,14,16,18,20,22,24,26,28,30,32,34,36,38,-1,40,-1,-1,42,44,46,48,50,52,54,56,58,60,62,64,-1,66,68,70,-1,-1,72,74,76,78,80,82,84,86,88,90,92,94,96,98,100,102,-1,-1,-1,-1,-1,-1,-1,-1,-1,-1,-1,-1,-1,-1,-1,-1,-1,-1,-1,-1,-1,-1,-1,-1,-1,-1,-1,-1,-1,-1,-1,-1,-1,-1,-1,-1,-1,-1,-1,-1,-1,-1,-1,-1,-1,-1],"split_conditions":[1.96057E5,4.1139E4,5.25414E-8,1.3243E4,8.458E4,1.5611773E-13,-2.8056308E-27,1.8475E5,1.91569E5,2.307E3,6E0,2.2082E5,3.657E3,1.6120265E-13,5.5761458E-8,5.3811448E-8,1.4871776E-13,3.149E3,5.124724E-8,1.1450382E0,7.04E2,5.3731345E-2,-1.6119404E-1,1.4683E4,1.3E1,1.1943E4,5.66E2,1.4244764E-13,2.95E2,1.0049473E-3,9.362E3,1.5039E4,1.73383E5,2.5026E4,3.9E1,6.268657E-1,1.83539E5,9.792241E-4,1.0728E4,5.3731345E-2,-9.7297296E-2,8.01611E-27,3.233E3,1.32E2,1.6514E4,3.3E1,3.02E2,2.271661E-13,-3.2054083E-17,1.04192086E-13,1.4414E4,4.4E1,2.05779E5,1.98E2,9.567877E-29,2.645112E-13,1.17E2,5.0899744E-1,5.3405996E-2,-1.5895395E-1,5.454546E-2,1.0055368E0,2.3463689E-1,8.020726E-1,2.1052632E-2,-1.7067072E-1,-1.3757353E-1,9.836066E-2,8.540541E-1,2.8660196E-1,-1.15487576E-1,1.1477824E0,5.263158E-1,3.4754097E-1,9.7661436E-1,2.5882354E-1,8.689655E-1,-1.5111113E-1,3.4029853E-1,-8.955224E-2,6.545455E-1,1.6216215E-1,-1.5593222E-1,9.893417E-1,1.9701493E-1,4.2162165E-1,-1.13684215E-1,7.4556214E-1,-4.931507E-2,1.0096463E0,1.810056E-1,9.223141E-1,-8.955224E-2,-5.6037027E-2,3.466667E-1,1.7404582E-1,-1.0909092E-1,7.245283E-1,-5.5384617E-2,-1.5525249E-1,3.1939164E-2,3.8545457E-1,-7.64543E-2],"split_indices":[365,292,513,292,365,514,516,365,365,73,1,365,146,514,513,513,514,219,513,0,0,0,0,292,9,292,437,515,429,512,219,438,365,438,510,0,365,512,438,0,0,516,146,373,438,145,364,514,517,514,511,310,365,291,518,515,218,0,0,0,0,0,0,0,0,0,0,0,0,0,0,0,0,0,0,0,0,0,0,0,0,0,0,0,0,0,0,0,0,0,0,0,0,0,0,0,0,0,0,0,0,0,0],"split_type":[0,0,0,0,0,0,0,0,0,0,0,0,0,0,0,0,0,0,0,0,0,0,0,0,0,0,0,0,0,0,0,0,0,0,0,0,0,0,0,0,0,0,0,0,0,0,0,0,0,0,0,0,0,0,0,0,0,0,0,0,0,0,0,0,0,0,0,0,0,0,0,0,0,0,0,0,0,0,0,0,0,0,0,0,0,0,0,0,0,0,0,0,0,0,0,0,0,0,0,0,0,0,0],"sum_hessian":[8.533656E3,7.5672188E3,9.664375E2,7.4998438E3,6.7375E1,5.6875E2,3.976875E2,2.8240625E2,7.2174375E3,5.053125E1,1.684375E1,5.411875E2,2.75625E1,2.0278125E2,1.9490625E2,2.0890625E2,7.35E1,6.9892812E3,2.2815625E2,4.8125E1,2.40625E0,1.09375E0,1.575E1,5.2784375E2,1.334375E1,1.421875E1,1.334375E1,9.471875E1,1.080625E2,8.946875E1,1.054375E2,7.896875E1,1.299375E2,4.9875E1,2.3625E1,1.09375E0,6.9881875E3,1.79375E1,2.1021875E2,1.09375E0,1.3125E0,4.5325E2,7.459375E1,4.8125E0,8.53125E0,2.84375E0,1.1375E1,1.00625E1,3.28125E0,3.28125E1,6.190625E1,7.65625E0,1.0040625E2,7.415625E1,1.53125E1,9.1E1,1.44375E1,1.115625E1,6.78125E1,1.089375E2,2.1E1,4.528125E1,4.59375E0,5.03125E0,1.859375E1,6.5587812E3,4.2940625E2,8.53125E0,9.40625E0,1.509375E1,1.95125E2,4.47125E2,6.125E0,2.1875E1,5.271875E1,2.1875E0,2.625E0,7.4375E0,1.09375E0,1.09375E0,1.75E0,1.3125E0,1.00625E1,8.96875E0,1.09375E0,1.3125E0,1.96875E0,2.0125E1,1.26875E1,5.73125E1,4.59375E0,6.5625E0,1.09375E0,7.328125E1,2.7125E1,1.946875E1,5.46875E1,1.225E1,3.0625E0,8.378125E1,7.21875E0,4.15625E0,1.028125E1],"tree_param":{"num_deleted":"0","num_feature":"519","num_nodes":"103","size_leaf_vector":"1"}},{"base_weights":[-2.0380141E-1,6.543236E-1,-4.3351573E-1,1.7505242E0,-3.2242638E-1,-4.967925E-1,-2.185184E-2,4.9280405E-1,2.8382404E0,-4.0476927E-1,1.3260274E0,-5.608558E-1,-4.201801E-1,-5.251224E-1,5.193306E-1,-6.1343204E-2,1.3093469E0,3.2352302E0,1.0015174E0,7.7910775E-1,-4.8400924E-1,-4.4444445E-1,1.9270073E0,-5.632261E-1,-4.2553192E-1,-4.9448273E-1,2.5668955E-1,-6.1104584E-2,-5.519591E-1,-3.6381254E-1,1.8095407E0,-2.9053265E-1,7.9402614E-1,2.142253E0,4.416503E-1,1.6843725E0,3.4138317E0,-1.8505338E-1,1.8445596E0,-6.174957E-2,2.1363637E0,-4.974698E-1,1E0,-1.5623268E-1,5.3731345E-2,8.766114E-1,2.7965813E0,-5.635419E-1,-1.263158E-2,9.655172E-1,-5.077951E-1,-2.2238873E-1,-5.514698E-1,-4.1889918E-1,8.892955E-1,1.3184358E0,-4.090909E-1,-5.563597E-1,-7.272727E-2,-4.7555557E-1,3.8567492E-1,3.1726283E-1,2.5633352E0,-1.6198853E-1,-2.8890194E-2,-0E0,4.094118E-1,1.8018018E-2,7.241739E-1,-1.3057671E-3,4.5953992E-1,8.0840546E-1,4.597701E-3,6.653938E-1,1.068285E0,4.370861E-1,-1.277612E-1,7.8260875E-1,1.106383E-1,-9.00336E-2,1.9278689E-1,8.359282E-1,1.3787234E-1,-3.529412E-2,-1.6175517E-1,7.5692314E-1,-1.3670887E-1,6.9139075E-1,9.056604E-2,9.1712713E-1,-9.7297296E-2,-1.7067368E-1,-1.6039605E-1,-9.7297296E-2,5.5135137E-1,1.07317075E-1,-1.6821115E-1,9.456523E-2,-1.1201841E-1,-1.6956976E-1,-1.3945946E-1,-1.446584E-1,9.337176E-2,5.9115046E-1,-1.5189874E-2,6.7155963E-1,-2.3529414E-2,-1.486405E-1,1.6216215E-1,3.2432433E-2,-1.6758429E-1,1.9701493E-1,-1.2923078E-1,-1.5382822E-1,7.36E-2,7.2396696E-1,-5.59727E-2,3.7297297E-1,-2.717312E-2,3.7107012E-1,9.81728E-1],"categories":[],"categories_nodes":[],"categories_segments":[],"categories_sizes":[],"default_left":[0,0,0,0,0,0,0,0,0,0,0,0,0,0,0,0,0,0,0,0,0,0,0,0,0,0,0,0,0,0,0,0,0,0,0,0,0,0,0,0,0,0,0,0,0,0,0,0,0,0,0,0,0,0,0,0,0,0,0,0,0,0,0,0,0,0,0,0,0,0,0,0,0,0,0,0,0,0,0,0,0,0,0,0,0,0,0,0,0,0,0,0,0,0,0,0,0,0,0,0,0,0,0,0,0,0,0,0,0,0,0,0,0,0,0,0,0,0,0,0,0],"id":6,"left_children":[1,3,5,7,9,11,13,15,17,19,21,23,25,27,29,31,33,35,37,39,41,43,45,47,49,51,53,55,57,59,61,63,65,67,69,71,73,75,77,79,81,83,85,-1,-1,87,89,91,-1,93,95,97,99,101,103,105,107,109,111,113,115,117,119,-1,-1,-1,-1,-1,-1,-1,-1,-1,-1,-1,-1,-1,-1,-1,-1,-1,-1,-1,-1,-1,-1,-1,-1,-1,-1,-1,-1,-1,-1,-1,-1,-1,-1,-1,-1,-1,-1,-1,-1,-1,-1,-1,-1,-1,-1,-1,-1,-1,-1,-1,-1,-1,-1,-1,-1,-1,-1],"loss_changes":[1.6826658E3,1.9306602E3,1.7537634E2,1.1607961E3,1.3004393E2,2.8407349E1,2.4487862E2,1.7889671E2,3.2877856E2,8.569469E1,4.9402267E1,7.788086E-1,1.3399014E2,5.767288E0,4.9432077E2,4.6570026E1,1.1455194E2,9.783374E1,8.274346E1,6.568295E1,1.7537292E1,6.822765E-1,2.8832336E1,4.892578E-1,7.213173E0,3.7071472E1,1.1317453E2,1.3305987E1,8.879852E-1,2.179353E1,1.9741003E2,9.0151825E0,2.2755856E1,4.5831635E1,3.8675537E1,6.841026E1,5.0928955E1,1.4509729E1,5.3448746E1,6.310567E0,2.269986E1,1.3341064E1,1.8886854E1,0E0,0E0,1.3230867E1,1.5854584E1,1.7919922E-1,0E0,4.6747437E0,2.7707367E0,3.3975548E1,2.1004639E0,6.0799713E0,1.3894579E2,7.364951E0,2.0724075E0,7.136688E-1,1.6295586E0,6.160469E0,3.9935535E1,2.287793E1,1.05939514E2,0E0,0E0,0E0,0E0,0E0,0E0,0E0,0E0,0E0,0E0,0E0,0E0,0E0,0E0,0E0,0E0,0E0,0E0,0E0,0E0,0E0,0E0,0E0,0E0,0E0,0E0,0E0,0E0,0E0,0E0,0E0,0E0,0E0,0E0,0E0,0E0,0E0,0E0,0E0,0E0,0E0,0E0,0E0,0E0,0E0,0E0,0E0,0E0,0E0,0E0,0E0,0E0,0E0,0E0,0E0,0E0,0E0,0E0],"parents":[2147483647,0,0,1,1,2,2,3,3,4,4,5,5,6,6,7,7,8,8,9,9,10,10,11,11,12,12,13,13,14,14,15,15,16,16,17,17,18,18,19,19,20,20,21,21,22,22,23,23,24,24,25,25,26,26,27,27,28,28,29,29,30,30,31,31,32,32,33,33,34,34,35,35,36,36,37,37,38,38,39,39,40,40,41,41,42,42,45,45,46,46,47,47,49,49,50,50,51,51,52,52,53,53,54,54,55,55,56,56,57,57,58,58,59,59,60,60,61,61,62,62],"right_children":[2,4,6,8,10,12,14,16,18,20,22,24,26,28,30,32,34,36,38,40,42,44,46,48,50,52,54,56,58,60,62,64,66,68,70,72,74,76,78,80,82,84,86,-1,-1,88,90,92,-1,94,96,98,100,102,104,106,108,110,112,114,116,118,120,-1,-1,-1,-1,-1,-1,-1,-1,-1,-1,-1,-1,-1,-1,-1,-1,-1,-1,-1,-1,-1,-1,-1,-1,-1,-1,-1,-1,-1,-1,-1,-1,-1,-1,-1,-1,-1,-1,-1,-1,-1,-1,-1,-1,-1,-1,-1,-1,-1,-1,-1,-1,-1,-1,-1,-1,-1,-1],"split_conditions":[1.3101E5,5.210295E-13,2.7806E4,7.407E3,2.899E4,-1.485259E-26,-6.257752E-26,5.746E3,4.2E1,9.4877E4,-8.1629724E-25,1.3989E4,1.9437E4,4.1837565E-13,2.1759E4,9.407972E-27,1.3E1,1.0144E4,1.2189E4,1.9587E4,1.6073E4,2.6E1,1.6374E4,8E0,1.3464108E-13,1.56748E5,-2.5201755E-17,1.38462E5,1.5254E4,1.4841E4,-3.9958826E-17,2.18E2,1.8735E4,1.3761E4,2.481E4,1.07089E5,-5.236798E-17,9.6677E4,1.3E1,1.7472E4,1.6E1,6.7862176E-13,7.5461534E-13,-1.5623268E-1,5.3731345E-2,5.69E2,7.8E1,-6.257752E-26,-1.263158E-2,2.3367E4,2.132884E-13,4.67E2,1.5149E4,2.6104E4,6.45E2,3.8E1,1.4E2,4.4213263E-14,8.8E1,1.443E3,3.27E2,8.59E2,8E3,-1.6198853E-1,-2.8890194E-2,-0E0,4.094118E-1,1.8018018E-2,7.241739E-1,-1.3057671E-3,4.5953992E-1,8.0840546E-1,4.597701E-3,6.653938E-1,1.068285E0,4.370861E-1,-1.277612E-1,7.8260875E-1,1.106383E-1,-9.00336E-2,1.9278689E-1,8.359282E-1,1.3787234E-1,-3.529412E-2,-1.6175517E-1,7.5692314E-1,-1.3670887E-1,6.9139075E-1,9.056604E-2,9.1712713E-1,-9.7297296E-2,-1.7067368E-1,-1.6039605E-1,-9.7297296E-2,5.5135137E-1,1.07317075E-1,-1.6821115E-1,9.456523E-2,-1.1201841E-1,-1.6956976E-1,-1.3945946E-1,-1.446584E-1,9.337176E-2,5.9115046E-1,-1.5189874E-2,6.7155963E-1,-2.3529414E-2,-1.486405E-1,1.6216215E-1,3.2432433E-2,-1.6758429E-1,1.9701493E-1,-1.2923078E-1,-1.5382822E-1,7.36E-2,7.2396696E-1,-5.59727E-2,3.7297297E-1,-2.717312E-2,3.7107012E-1,9.81728E-1],"split_indices":[365,515,292,146,292,518,518,146,428,365,518,146,511,515,438,518,428,219,219,292,146,8,511,2,514,365,517,365,146,511,517,147,292,438,292,365,517,365,209,292,428,515,514,0,0,283,355,518,0,292,515,283,511,292,437,72,154,514,64,439,437,283,146,0,0,0,0,0,0,0,0,0,0,0,0,0,0,0,0,0,0,0,0,0,0,0,0,0,0,0,0,0,0,0,0,0,0,0,0,0,0,0,0,0,0,0,0,0,0,0,0,0,0,0,0,0,0,0,0,0,0],"split_type":[0,0,0,0,0,0,0,0,0,0,0,0,0,0,0,0,0,0,0,0,0,0,0,0,0,0,0,0,0,0,0,0,0,0,0,0,0,0,0,0,0,0,0,0,0,0,0,0,0,0,0,0,0,0,0,0,0,0,0,0,0,0,0,0,0,0,0,0,0,0,0,0,0,0,0,0,0,0,0,0,0,0,0,0,0,0,0,0,0,0,0,0,0,0,0,0,0,0,0,0,0,0,0,0,0,0,0,0,0,0,0,0,0,0,0,0,0,0,0,0,0],"sum_hessian":[8.533656E3,1.801625E3,6.7320312E3,8.4853125E2,9.5309375E2,5.8349375E3,8.9709375E2,3.941875E2,4.5434375E2,9.0846875E2,4.4625E1,3.1742812E3,2.6606562E3,4.6484375E2,4.3225E2,2.35375E2,1.588125E2,3.7296875E2,8.1375E1,5.64375E1,8.5203125E2,1.1375E1,3.325E1,3.1165312E3,5.775E1,2.3977188E3,2.629375E2,2.559375E1,4.3925E2,2.5703125E2,1.7521875E2,1.8615625E2,4.921875E1,8.028125E1,7.853125E1,3.959375E1,3.33375E2,3.4125E1,4.725E1,3.54375E1,2.1E1,8.4503125E2,7E0,1.028125E1,1.09375E0,1.596875E1,1.728125E1,3.1145625E3,1.96875E0,2.625E0,5.5125E1,4.160625E2,1.9816562E3,1.273125E2,1.35625E2,4.59375E0,2.1E1,4.3509375E2,4.15625E0,2.24E2,3.303125E1,5.928125E1,1.159375E2,8.071875E1,1.054375E2,2.1E1,2.821875E1,9.40625E0,7.0875E1,5.64375E1,2.209375E1,2.428125E1,1.53125E1,3.828125E1,2.9509375E2,3.71875E0,3.040625E1,3.0625E1,1.6625E1,2.690625E1,8.53125E0,1.465625E1,6.34375E0,8.4E1,7.6103125E2,3.0625E0,3.9375E0,3.71875E0,1.225E1,1.596875E1,1.3125E0,2.6105625E3,5.04E2,1.3125E0,1.3125E0,2.84375E0,5.228125E1,9.1E1,3.250625E2,1.7051562E3,2.765E2,1.1746875E2,9.84375E0,6.25625E1,7.30625E1,2.40625E0,2.1875E0,1.96875E1,1.3125E0,1.3125E0,4.3378125E2,1.09375E0,3.0625E0,2.1328125E2,1.071875E1,6.5625E0,2.646875E1,1.75E1,4.178125E1,4.134375E1,7.459375E1],"tree_param":{"num_deleted":"0","num_feature":"519","num_nodes":"121","size_leaf_vector":"1"}},{"base_weights":[1.3974347E0,3.6577756E0,-3.342105E-1,1.2327739E0,3.7650192E0,1.2075015E0,-4.029739E-1,3.1867404E0,1.448129E-1,1.8361032E0,3.8251333E0,4.1331E-1,2.9364161E0,6.3894314E-1,-4.844073E-1,-1.8691589E-1,3.5675676E0,-2.2179732E-1,1.5E0,8.285078E-1,2.8505213E0,1.1111112E0,3.8527296E0,1.8903592E-1,2.9565217E0,1.9746835E0,3.3586257E0,-3.175736E-1,1.3168175E0,-4.985507E-1,8.303935E-1,1.9701493E-1,-1.4078213E-1,3.7031147E0,1.4569536E0,-5.1689863E-1,1.7574692E-1,2.650124E0,-3.6036037E-2,2.1261516E-1,2.8489208E0,4.2975205E-1,3.176781E0,-4.005979E-1,3.0058253E0,3.9218504E0,3.4867187E0,4.0989753E-2,2.418251E0,5.3731345E-2,3.2312312E0,-1.2413794E-1,2.3157895E0,3.4332104E0,1.6216215E-1,-4.8E-1,1.1158798E0,5.708563E-1,2.5747323E0,-1.401318E-1,-5.227746E-1,-1.4868541E-1,3.4441688E0,1.1332871E0,4.4705886E-1,-0E0,6.9473684E-1,2.9268293E-2,-1.6755995E-1,3.8080004E-1,-1.0415095E-1,-0E0,9.23343E-1,2.8965518E-1,-1.493976E-1,6.83871E-1,-2.9594272E-2,9.486911E-1,-8.955224E-2,6.545455E-1,-1.4193548E-1,9.9059314E-1,-1.0370371E-1,-1.4763407E-1,1.9701493E-1,9.6000004E-1,5.3731345E-2,5.959551E-1,1.1789833E0,1.1366537E0,8.028671E-1,2.3232001E-1,-8.666907E-2,8.9592767E-1,-9.7297296E-2,1.0389262E0,1.9701493E-1,8.8141596E-1,1.7971015E-1,3.7241378E-1,1.0640441E0,2.278481E-1,-1.5779817E-1,-6.942149E-2,6.75E-1,5.487437E-1,1.0169492E-2,9.231774E-1,2.0189036E-1,-7.039725E-2,3.7963638E-1,-8.096677E-2,-1.6320574E-1,-1.08216435E-1,4.291971E-1,1.9701493E-1,1.0956522E0],"categories":[],"categories_nodes":[],"categories_segments":[],"categories_sizes":[],"default_left":[0,0,0,0,0,0,0,0,0,0,0,0,0,0,0,0,0,0,0,0,0,0,0,0,0,0,0,0,0,0,0,0,0,0,0,0,0,0,0,0,0,0,0,0,0,0,0,0,0,0,0,0,0,0,0,0,0,0,0,0,0,0,0,0,0,0,0,0,0,0,0,0,0,0,0,0,0,0,0,0,0,0,0,0,0,0,0,0,0,0,0,0,0,0,0,0,0,0,0,0,0,0,0,0,0,0,0,0,0,0,0,0,0,0,0,0,0],"id":7,"left_children":[1,3,5,7,9,11,13,15,17,19,21,23,25,27,29,31,33,35,37,39,41,43,45,47,49,51,53,55,57,59,61,-1,-1,63,65,67,69,71,73,75,77,79,81,83,85,87,89,91,93,-1,95,-1,97,99,-1,101,103,105,107,109,111,113,115,-1,-1,-1,-1,-1,-1,-1,-1,-1,-1,-1,-1,-1,-1,-1,-1,-1,-1,-1,-1,-1,-1,-1,-1,-1,-1,-1,-1,-1,-1,-1,-1,-1,-1,-1,-1,-1,-1,-1,-1,-1,-1,-1,-1,-1,-1,-1,-1,-1,-1,-1,-1,-1,-1],"loss_changes":[3.3406793E4,9.581875E2,5.1289233E2,3.3601907E2,4.0403516E2,2.8250095E2,3.9296222E2,7.333716E1,5.1365986E1,1.0911362E2,2.5313281E2,8.086235E1,1.971045E1,2.1821918E2,8.024341E1,1.9011837E0,9.159424E0,9.677746E0,3.8961403E1,6.923385E1,4.123456E1,1.0431737E2,7.2390625E1,4.354691E1,8.195572E0,1.9060394E1,7.32016E0,3.316102E1,1.8318103E2,3.6807495E1,1.1839028E2,0E0,0E0,2.145813E0,5.904496E0,1.2608776E0,2.0777252E1,1.427401E1,5.2955155E0,2.8593294E1,1.379734E1,1.299529E1,2.203366E1,2.3460848E0,8.260376E0,3.689453E1,1.2439404E2,3.0474062E1,1.3775532E1,0E0,3.9374008E0,0E0,1.9171516E1,6.1405945E0,0E0,7.614708E0,2.277191E1,8.426738E1,6.7664246E1,3.6207596E1,2.122754E1,1.2058878E1,4.903473E0,0E0,0E0,0E0,0E0,0E0,0E0,0E0,0E0,0E0,0E0,0E0,0E0,0E0,0E0,0E0,0E0,0E0,0E0,0E0,0E0,0E0,0E0,0E0,0E0,0E0,0E0,0E0,0E0,0E0,0E0,0E0,0E0,0E0,0E0,0E0,0E0,0E0,0E0,0E0,0E0,0E0,0E0,0E0,0E0,0E0,0E0,0E0,0E0,0E0,0E0,0E0,0E0,0E0,0E0],"parents":[2147483647,0,0,1,1,2,2,3,3,4,4,5,5,6,6,7,7,8,8,9,9,10,10,11,11,12,12,13,13,14,14,15,15,16,16,17,17,18,18,19,19,20,20,21,21,22,22,23,23,24,24,25,25,26,26,27,27,28,28,29,29,30,30,33,33,34,34,35,35,36,36,37,37,38,38,39,39,40,40,41,41,42,42,43,43,44,44,45,45,46,46,47,47,48,48,50,50,52,52,53,53,55,55,56,56,57,57,58,58,59,59,60,60,61,61,62,62],"right_children":[2,4,6,8,10,12,14,16,18,20,22,24,26,28,30,32,34,36,38,40,42,44,46,48,50,52,54,56,58,60,62,-1,-1,64,66,68,70,72,74,76,78,80,82,84,86,88,90,92,94,-1,96,-1,98,100,-1,102,104,106,108,110,112,114,116,-1,-1,-1,-1,-1,-1,-1,-1,-1,-1,-1,-1,-1,-1,-1,-1,-1,-1,-1,-1,-1,-1,-1,-1,-1,-1,-1,-1,-1,-1,-1,-1,-1,-1,-1,-1,-1,-1,-1,-1,-1,-1,-1,-1,-1,-1,-1,-1,-1,-1,-1,-1,-1,-1],"split_conditions":[-1.104177E-25,5.210295E-13,-2.9575948E-25,3.1703188E-13,1.3761E4,2.093E3,-4.9129434E-26,1.0271E4,2.539E4,1.0044E4,9.993238E-14,4.77E2,1.91E2,3.299374E-13,3.1552E4,6.01E2,6.041943E-8,1.7414E4,2.85E2,2.655E3,1.00876E5,-1.0898473E-16,-3.2791821E-25,7.11E2,6.3E1,3.0607922E-13,3.0679E4,2.7361E4,1.3E1,-9.236872E-26,4.303E3,1.9701493E-1,-1.4078213E-1,9.7E1,5.8E1,8E0,5E0,1.34671E5,3.8E1,2.4E2,1.309E3,4.229E3,2.6088E4,9.23E2,9.124375E-17,6.686481E-13,6.026657E-8,2.5673185E-26,3.1989E4,5.3731345E-2,1.5016531E-12,-1.2413794E-1,-1.9582602E-16,1.3406E4,1.6216215E-1,1.4629397E-13,1.38735E5,9.939467E-4,6.084826E-8,3.62E2,-2.3548797E-26,6.5E1,1.6E1,1.1332871E0,4.4705886E-1,-0E0,6.9473684E-1,2.9268293E-2,-1.6755995E-1,3.8080004E-1,-1.0415095E-1,-0E0,9.23343E-1,2.8965518E-1,-1.493976E-1,6.83871E-1,-2.9594272E-2,9.486911E-1,-8.955224E-2,6.545455E-1,-1.4193548E-1,9.9059314E-1,-1.0370371E-1,-1.4763407E-1,1.9701493E-1,9.6000004E-1,5.3731345E-2,5.959551E-1,1.1789833E0,1.1366537E0,8.028671E-1,2.3232001E-1,-8.666907E-2,8.9592767E-1,-9.7297296E-2,1.0389262E0,1.9701493E-1,8.8141596E-1,1.7971015E-1,3.7241378E-1,1.0640441E0,2.278481E-1,-1.5779817E-1,-6.942149E-2,6.75E-1,5.487437E-1,1.0169492E-2,9.231774E-1,2.0189036E-1,-7.039725E-2,3.7963638E-1,-8.096677E-2,-1.6320574E-1,-1.08216435E-1,4.291971E-1,1.9701493E-1,1.0956522E0],"split_indices":[518,515,516,514,438,0,518,511,438,511,514,145,64,515,511,155,513,438,357,366,365,517,518,218,64,514,292,438,237,516,429,0,0,138,229,430,428,365,227,82,164,301,301,137,517,515,513,518,292,0,515,0,517,438,0,514,365,512,513,145,518,501,211,0,0,0,0,0,0,0,0,0,0,0,0,0,0,0,0,0,0,0,0,0,0,0,0,0,0,0,0,0,0,0,0,0,0,0,0,0,0,0,0,0,0,0,0,0,0,0,0,0,0,0,0,0,0],"split_type":[0,0,0,0,0,0,0,0,0,0,0,0,0,0,0,0,0,0,0,0,0,0,0,0,0,0,0,0,0,0,0,0,0,0,0,0,0,0,0,0,0,0,0,0,0,0,0,0,0,0,0,0,0,0,0,0,0,0,0,0,0,0,0,0,0,0,0,0,0,0,0,0,0,0,0,0,0,0,0,0,0,0,0,0,0,0,0,0,0,0,0,0,0,0,0,0,0,0,0,0,0,0,0,0,0,0,0,0,0,0,0,0,0,0,0,0,0],"sum_hessian":[8.533656E3,3.70125E3,4.8324062E3,1.5728125E2,3.5439688E3,2.05625E2,4.6267812E3,5.55625E1,1.0171875E2,1.080625E2,3.4359062E3,1.4175E2,6.3875E1,3.3490625E2,4.291875E3,5.6875E0,4.9875E1,8.071875E1,2.1E1,5.5125E1,5.29375E1,3.5E1,3.4009062E3,1.3125E2,1.05E1,2.121875E1,4.265625E1,1.39125E2,1.9578125E2,4.2468125E3,4.50625E1,1.09375E0,4.59375E0,4.615625E1,3.71875E0,4.615625E1,3.45625E1,1.159375E1,9.40625E0,4.309375E1,1.203125E1,6.5625E0,4.6375E1,1.990625E1,1.509375E1,2.8525E3,5.4840625E2,1.2403125E2,7.21875E0,1.09375E0,9.40625E0,2.625E0,1.859375E1,4.134375E1,1.3125E0,1.255625E2,1.35625E1,1.238125E2,7.196875E1,2.6928125E2,3.9775312E3,3.346875E1,1.159375E1,4.396875E1,2.1875E0,1.75E0,1.96875E0,2.84375E0,4.33125E1,1.071875E1,2.384375E1,1.75E0,9.84375E0,2.625E0,6.78125E0,4.8125E0,3.828125E1,1.09375E1,1.09375E0,1.75E0,4.8125E0,4.484375E1,1.53125E0,1.88125E1,1.09375E0,1.4E1,1.09375E0,1.290625E1,2.8395938E3,3.968125E2,1.5159375E2,3.80625E1,8.596875E1,5.90625E0,1.3125E0,8.3125E0,1.09375E0,1.3125E1,5.46875E0,2.625E0,3.871875E1,3.9375E0,1.21625E2,6.5625E0,7E0,3.63125E1,8.75E1,5.64375E1,1.553125E1,2.5309375E2,1.61875E1,3.093125E2,3.6682188E3,3.01875E1,3.28125E0,1.09375E0,1.05E1],"tree_param":{"num_deleted":"0","num_feature":"519","num_nodes":"117","size_leaf_vector":"1"}},{"base_weights":[-3.7738807E-2,-2.7472883E-1,3.563821E-1,-3.6116996E-1,1.2123403E-1,5.2686106E-2,1.0255483E0,-3.9310613E-1,9.7799E-1,5.559826E-1,-4.1716704E-1,2.874164E-1,-3.8976866E-1,1.189828E0,-4.7351043E-3,-2.6373976E-1,-5.178488E-1,1.1984085E0,-1.5375848E-1,5.5839434E-2,1.061298E0,-4.803551E-1,2.6047358E-1,-1.1220489E-1,7.244974E-1,3.328755E-1,-4.213932E-1,1.3188249E0,-1.2538418E-1,5.902219E-1,-2.9175928E-1,4.6416212E-2,-5.1891E-1,-2.7764097E-1,-5.320846E-1,1.351915E0,1.654928E-1,7.138516E-1,-3.5015783E-1,3.7822065E-1,1.3156531E0,-3.5557635E-2,-5.125315E-1,-4.6303234E-1,8.926528E-1,1.3324414E-1,-4.121596E-1,2.332452E-1,1.0487057E0,-6.237948E-3,1.1197805E0,-4.5003843E-1,1.8945026E-1,9.924335E-1,1.5993568E0,-3.6385095E-1,9.278956E-1,-7.3542506E-2,1.3207573E0,-4.264317E-1,3.1356525E-1,-8.351393E-2,1.3126542E-1,-1.572997E-1,1.8469241E-1,2.4699109E-2,-1.4781415E-1,-1.5993527E-1,9.209672E-2,4.19857E-1,-4.255324E-2,3.3422005E-1,-4.706839E-2,3.674454E-1,1.2782716E-2,-1.23567484E-1,9.999388E-2,-1.7977875E-2,2.6654363E-1,4.2390814E-1,-1.5203539E-1,2.3987292E-1,-1.2430212E-1,-1.5546834E-1,2.0021585E-1,-1.5604751E-1,6.391449E-2,5.253685E-1,-8.320301E-2,2.0306233E-1,-6.516015E-2,-1.486337E-1,5.6149926E-2,-2.5496103E-2,2.1511203E-1,3.7237757E-1,-8.620689E-2,-7.7437654E-2,2.482455E-1,-1.08410425E-1,4.5128182E-1,-1.4816599E-1,-2.2234675E-2,-7.791705E-2,3.2954413E-1,1.4318289E-1,3.6098874E-1,4.9648863E-1,1.0681709E-1,-1.3087422E-1,7.86303E-2,-6.467135E-2,5.742635E-1,-9.842666E-2,2.852866E-1,6.398266E-1,1.9643195E-1,-1.5431596E-1,-7.527436E-3,-9.788112E-2,3.9608794E-1],"categories":[],"categories_nodes":[],"categories_segments":[],"categories_sizes":[],"default_left":[0,0,0,0,0,0,0,0,0,0,0,0,0,0,0,0,0,0,0,0,0,0,0,0,0,0,0,0,0,0,0,0,0,0,0,0,0,0,0,0,0,0,0,0,0,0,0,0,0,0,0,0,0,0,0,0,0,0,0,0,0,0,0,0,0,0,0,0,0,0,0,0,0,0,0,0,0,0,0,0,0,0,0,0,0,0,0,0,0,0,0,0,0,0,0,0,0,0,0,0,0,0,0,0,0,0,0,0,0,0,0,0,0,0,0,0,0,0,0,0,0],"id":8,"left_children":[1,3,5,7,9,11,13,15,17,19,21,23,25,27,29,31,33,35,-1,37,39,41,43,45,47,49,51,53,55,57,59,61,63,65,67,69,71,73,75,77,79,81,83,85,87,89,91,93,95,97,99,101,103,105,107,109,111,113,115,117,119,-1,-1,-1,-1,-1,-1,-1,-1,-1,-1,-1,-1,-1,-1,-1,-1,-1,-1,-1,-1,-1,-1,-1,-1,-1,-1,-1,-1,-1,-1,-1,-1,-1,-1,-1,-1,-1,-1,-1,-1,-1,-1,-1,-1,-1,-1,-1,-1,-1,-1,-1,-1,-1,-1,-1,-1,-1,-1,-1,-1],"loss_changes":[7.3568634E2,1.6839789E2,6.010321E2,1.7306158E2,2.0670871E2,2.1151411E2,1.5627228E2,6.351349E1,3.1605675E1,1.2339093E2,1.7023666E1,2.3247867E2,1.6274292E1,1.3526404E2,2.2024557E1,1.5342378E2,6.71521E0,1.2853966E1,0E0,6.6114784E1,4.1708527E1,5.1533127E0,1.6106133E1,5.1290226E1,1.0098758E2,8.05484E0,1.1928177E1,6.4819824E1,1.8431719E1,2.0450895E1,7.2252626E0,1.11381584E2,6.865204E0,8.89574E0,1.8048706E0,5.295166E0,3.786705E0,3.232674E1,6.5988083E0,1.5102876E1,3.2056213E1,8.38217E0,2.6101685E0,7.541685E-1,1.9222292E1,7.320532E1,1.5737511E1,3.916494E1,9.879028E1,4.8485036E0,5.719225E0,1.0624985E1,1.2951731E1,3.6126923E1,2.6262085E1,2.8087807E0,1.5729097E1,6.2942777E0,9.438084E0,2.5139675E0,1.0999693E1,0E0,0E0,0E0,0E0,0E0,0E0,0E0,0E0,0E0,0E0,0E0,0E0,0E0,0E0,0E0,0E0,0E0,0E0,0E0,0E0,0E0,0E0,0E0,0E0,0E0,0E0,0E0,0E0,0E0,0E0,0E0,0E0,0E0,0E0,0E0,0E0,0E0,0E0,0E0,0E0,0E0,0E0,0E0,0E0,0E0,0E0,0E0,0E0,0E0,0E0,0E0,0E0,0E0,0E0,0E0,0E0,0E0,0E0,0E0,0E0],"parents":[2147483647,0,0,1,1,2,2,3,3,4,4,5,5,6,6,7,7,8,8,9,9,10,10,11,11,12,12,13,13,14,14,15,15,16,16,17,17,19,19,20,20,21,21,22,22,23,23,24,24,25,25,26,26,27,27,28,28,29,29,30,30,31,31,32,32,33,33,34,34,35,35,36,36,37,37,38,38,39,39,40,40,41,41,42,42,43,43,44,44,45,45,46,46,47,47,48,48,49,49,50,50,51,51,52,52,53,53,54,54,55,55,56,56,57,57,58,58,59,59,60,60],"right_children":[2,4,6,8,10,12,14,16,18,20,22,24,26,28,30,32,34,36,-1,38,40,42,44,46,48,50,52,54,56,58,60,62,64,66,68,70,72,74,76,78,80,82,84,86,88,90,92,94,96,98,100,102,104,106,108,110,112,114,116,118,120,-1,-1,-1,-1,-1,-1,-1,-1,-1,-1,-1,-1,-1,-1,-1,-1,-1,-1,-1,-1,-1,-1,-1,-1,-1,-1,-1,-1,-1,-1,-1,-1,-1,-1,-1,-1,-1,-1,-1,-1,-1,-1,-1,-1,-1,-1,-1,-1,-1,-1,-1,-1,-1,-1,-1,-1,-1,-1,-1,-1],"split_conditions":[2.175E3,3E0,1E0,6.97E2,6.880025E-13,5.533332E-13,7.94399E-13,4.5769644E-13,1.51925E5,7.97E2,-5.887097E-27,4.24E2,1.07089E5,1.71899E5,1.33486E5,1.76474E5,1.07089E5,6.8E1,-1.5375848E-1,1.33486E5,1.318E3,1.6018E4,4.167361E-13,1.69029E5,8E0,8.0626575E-13,5.46E2,6.2E2,1.8711E4,4.2E1,3.91E2,6.93E2,9.13E2,9.542206E-13,2.93E2,7.4E1,1.1486587E-15,1.7104E4,4.41E2,3.45E2,3.2718E4,4.28E2,1.97E2,1.3E1,1.0687056E-3,6.132E3,1.8468E4,3.016E3,1.78036E5,1.5E1,9E0,1.1787E4,5.4E1,2.191E3,3.1794E4,1.093E3,2.0921E4,3.692E3,1.0246179E-12,-3.0436803E-25,2.7E1,-8.351393E-2,1.3126542E-1,-1.572997E-1,1.8469241E-1,2.4699109E-2,-1.4781415E-1,-1.5993527E-1,9.209672E-2,4.19857E-1,-4.255324E-2,3.3422005E-1,-4.706839E-2,3.674454E-1,1.2782716E-2,-1.23567484E-1,9.999388E-2,-1.7977875E-2,2.6654363E-1,4.2390814E-1,-1.5203539E-1,2.3987292E-1,-1.2430212E-1,-1.5546834E-1,2.0021585E-1,-1.5604751E-1,6.391449E-2,5.253685E-1,-8.320301E-2,2.0306233E-1,-6.516015E-2,-1.486337E-1,5.6149926E-2,-2.5496103E-2,2.1511203E-1,3.7237757E-1,-8.620689E-2,-7.7437654E-2,2.482455E-1,-1.08410425E-1,4.5128182E-1,-1.4816599E-1,-2.2234675E-2,-7.791705E-2,3.2954413E-1,1.4318289E-1,3.6098874E-1,4.9648863E-1,1.0681709E-1,-1.3087422E-1,7.86303E-2,-6.467135E-2,5.742635E-1,-9.842666E-2,2.852866E-1,6.398266E-1,1.9643195E-1,-1.5431596E-1,-7.527436E-3,-9.788112E-2,3.9608794E-1],"split_indices":[293,136,136,310,515,515,515,515,365,437,518,437,365,365,365,365,365,503,0,365,293,438,514,365,355,514,357,437,438,154,357,437,357,515,10,245,514,438,357,357,438,137,10,165,512,146,438,293,365,428,375,301,227,366,438,364,292,293,515,518,154,0,0,0,0,0,0,0,0,0,0,0,0,0,0,0,0,0,0,0,0,0,0,0,0,0,0,0,0,0,0,0,0,0,0,0,0,0,0,0,0,0,0,0,0,0,0,0,0,0,0,0,0,0,0,0,0,0,0,0,0],"split_type":[0,0,0,0,0,0,0,0,0,0,0,0,0,0,0,0,0,0,0,0,0,0,0,0,0,0,0,0,0,0,0,0,0,0,0,0,0,0,0,0,0,0,0,0,0,0,0,0,0,0,0,0,0,0,0,0,0,0,0,0,0,0,0,0,0,0,0,0,0,0,0,0,0,0,0,0,0,0,0,0,0,0,0,0,0,0,0,0,0,0,0,0,0,0,0,0,0,0,0,0,0,0,0,0,0,0,0,0,0,0,0,0,0,0,0,0,0,0,0,0,0],"sum_hessian":[7.874449E3,4.9176846E3,2.9567646E3,4.0365654E3,8.8111896E2,2.0345007E3,9.222639E2,3.943234E3,9.333145E1,4.8746646E2,3.9365253E2,1.3295178E3,7.04983E2,7.952981E2,1.2696587E2,1.9372705E3,2.0059634E3,8.147837E1,1.1853083E1,2.4554517E2,2.4192131E2,3.603427E2,3.330981E1,6.949088E2,6.3460895E2,2.9158712E1,6.758242E2,7.2425946E2,7.1038635E1,4.0974888E1,8.599099E1,8.747914E2,1.0624791E3,1.1337827E2,1.8925851E3,7.0667336E1,1.0811038E1,9.340407E1,1.521411E2,6.631568E1,1.7560562E2,2.445052E1,3.3589218E2,1.5657704E1,1.7652105E1,3.8248343E2,3.124254E2,2.5298952E2,3.8161945E2,2.1070528E1,8.088184E0,6.458028E2,3.0021412E1,3.368643E2,3.8739514E2,5.845805E1,1.2580583E1,2.1939758E1,1.9035131E1,7.05832E1,1.5407792E1,4.7808286E2,3.967085E2,1.0579607E3,4.518397E0,4.2635563E1,7.0742714E1,1.8906223E3,1.9628098E0,6.854576E1,2.1215684E0,2.1193902E0,8.691648E0,5.256534E1,4.0838734E1,1.3990195E2,1.2239146E1,3.61538E1,3.0161882E1,1.6691205E2,8.693566E0,7.282741E0,1.7167778E1,3.348365E2,1.055704E0,1.4650431E1,1.0072731E0,9.894482E0,7.757624E0,1.495544E2,2.3292903E2,2.744583E2,3.796709E1,1.5310435E2,9.988516E1,3.3361057E2,4.800889E1,1.6711868E1,4.3586597E0,1.6792984E0,6.408886E0,5.780629E2,6.773988E1,2.0571045E1,9.450366E0,9.878536E1,2.3807893E2,3.7049408E2,1.6901058E1,5.2669468E1,5.7885823E0,6.1880374E0,6.392545E0,1.8117939E1,3.8218198E0,7.584884E0,1.1450247E1,5.766424E1,1.2918956E1,9.83376E0,5.5740314E0],"tree_param":{"num_deleted":"0","num_feature":"519","num_nodes":"121","size_leaf_vector":"1"}},{"base_weights":[-2.1647918E-1,-4.5373288E-1,6.956355E-1,-5.102127E-1,-1.2243893E-1,-1.562001E-1,1.3192775E0,-4.3306628E-1,-5.373459E-1,-4.9704427E-1,7.18884E-1,6.467195E-1,-4.8736653E-1,-1.4416179E-1,1.38861E0,-4.3884334E-1,1.843999E0,-4.7359386E-1,-5.4568595E-1,-5.8047924E-2,-5.288974E-1,9.3326306E-1,-3.785954E-1,-2.8458202E-1,9.976173E-1,3.5575002E-1,-4.9567893E-1,-4.6617696E-1,1.2040231E0,2.5934604E-1,1.4083182E0,-5.015212E-1,-2.3308365E-1,6.1475385E-2,7.3442113E-1,-4.9236262E-1,5.6566924E-1,-5.4597896E-1,2.3624927E-2,-1.6159686E-1,5.75159E-1,1.9386815E-1,-5.324111E-1,1.081517E0,-2.021226E-1,-1.6414109E-1,2.526262E-1,-4.4906312E-1,7.1738416E-1,-4.9045599E-1,1.2561661E0,-2.9008964E-1,-5.435453E-1,1.6882806E-1,-1.6449961E-1,-8.503518E-2,4.37985E-1,-4.1760367E-1,1.4084285E0,1.4292594E0,5.380978E-1,-1.5188593E-1,2.3450646E-1,-8.5114874E-2,1.6578868E-1,-1.541871E-1,-7.5705975E-2,-7.404919E-2,3.9061156E-1,-1.638832E-1,-4.360704E-3,4.9032545E-1,4.515583E-2,-1.6024864E-1,6.1364934E-2,2.501236E-1,4.5003277E-1,2.842843E-1,-1.21170126E-1,-1.455206E-1,3.9380923E-1,-1.5804268E-1,2.303405E-2,4.482579E-1,-6.522339E-2,-1.6056667E-1,6.002637E-2,4.3042272E-1,6.0283773E-2,-1.393955E-1,1.4468253E-1,-1.6385883E-1,6.1219018E-2,-1.4957158E-1,5.399582E-2,4.994956E-1,4.113669E-2,4.3211856E-1,1.2449418E-1,-1.4599624E-1,2.7227363E-1],"categories":[],"categories_nodes":[],"categories_segments":[],"categories_sizes":[],"default_left":[0,0,0,0,0,0,0,0,0,0,0,0,0,0,0,0,0,0,0,0,0,0,0,0,0,0,0,0,0,0,0,0,0,0,0,0,0,0,0,0,0,0,0,0,0,0,0,0,0,0,0,0,0,0,0,0,0,0,0,0,0,0,0,0,0,0,0,0,0,0,0,0,0,0,0,0,0,0,0,0,0,0,0,0,0,0,0,0,0,0,0,0,0,0,0,0,0,0,0,0,0],"id":9,"left_children":[1,3,5,7,9,11,13,15,17,19,21,23,25,27,29,31,33,35,37,39,41,43,45,47,49,-1,51,53,55,57,59,61,63,-1,-1,65,67,69,-1,-1,71,-1,73,75,77,-1,79,81,83,85,87,89,91,-1,-1,-1,-1,93,95,97,99,-1,-1,-1,-1,-1,-1,-1,-1,-1,-1,-1,-1,-1,-1,-1,-1,-1,-1,-1,-1,-1,-1,-1,-1,-1,-1,-1,-1,-1,-1,-1,-1,-1,-1,-1,-1,-1,-1,-1,-1],"loss_changes":[1.6222634E3,1.1124255E2,8.2231647E2,1.0404785E1,2.7383347E2,1.7447717E2,9.086194E1,1.8270996E1,1.7382812E0,8.373154E0,6.334616E1,6.2928123E1,7.0453568E0,1.8501406E1,1.8623657E1,1.6969345E1,3.0147095E0,8.900314E0,6.4941406E-1,1.3024564E1,2.6571808E0,3.7969788E1,4.8686585E0,9.096157E0,5.4270264E1,0E0,4.3957367E0,3.1892228E0,3.5530758E0,1.2925827E1,1.4508667E1,6.6000824E0,1.253767E1,0E0,0E0,2.1233368E0,5.2911005E0,5.17334E-1,0E0,0E0,8.080602E0,0E0,8.3070374E-1,1.9339859E1,6.587393E0,0E0,8.4994755E0,1.9351959E0,6.0558434E0,7.674732E-1,2.2153305E1,1.2294872E1,8.5298157E-1,0E0,0E0,0E0,0E0,6.099881E-1,1.7641001E0,8.641846E0,8.508011E0,0E0,0E0,0E0,0E0,0E0,0E0,0E0,0E0,0E0,0E0,0E0,0E0,0E0,0E0,0E0,0E0,0E0,0E0,0E0,0E0,0E0,0E0,0E0,0E0,0E0,0E0,0E0,0E0,0E0,0E0,0E0,0E0,0E0,0E0,0E0,0E0,0E0,0E0,0E0,0E0],"parents":[2147483647,0,0,1,1,2,2,3,3,4,4,5,5,6,6,7,7,8,8,9,9,10,10,11,11,12,12,13,13,14,14,15,15,16,16,17,17,18,18,19,19,20,20,21,21,22,22,23,23,24,24,26,26,27,27,28,28,29,29,30,30,31,31,32,32,35,35,36,36,37,37,40,40,42,42,43,43,44,44,46,46,47,47,48,48,49,49,50,50,51,51,52,52,57,57,58,58,59,59,60,60],"right_children":[2,4,6,8,10,12,14,16,18,20,22,24,26,28,30,32,34,36,38,40,42,44,46,48,50,-1,52,54,56,58,60,62,64,-1,-1,66,68,70,-1,-1,72,-1,74,76,78,-1,80,82,84,86,88,90,92,-1,-1,-1,-1,94,96,98,100,-1,-1,-1,-1,-1,-1,-1,-1,-1,-1,-1,-1,-1,-1,-1,-1,-1,-1,-1,-1,-1,-1,-1,-1,-1,-1,-1,-1,-1,-1,-1,-1,-1,-1,-1,-1,-1,-1,-1,-1],"split_conditions":[1.0743716E-3,1.0498135E-3,1.49296E5,1.7799E4,1.54646E5,1.5318E4,-8.516117E-25,3.33E3,1.2159E4,1.3647E4,6.2873394E-13,-2.8500973E-25,3.7169E4,1.1467807E-3,-2.3031691E-16,1.0307397E-3,3E1,4.842E3,5.5E1,1.21984E5,4E2,8.144E3,1.3653019E-25,8.365E3,1.07089E5,3.5575002E-1,1.7962E4,1.3166E4,-9.00828E-25,1.1403139E-3,1.1231E4,2.531E3,3.36E2,6.1475385E-2,7.3442113E-1,3.65E2,1.67651E5,6.452E3,2.3624927E-2,-1.6159686E-1,6.3242084E-8,1.9386815E-1,6.4E1,3.356E3,8E0,-1.6414109E-1,-4.298024E-25,3.7041254E-17,1.343861E-12,5.31E2,3.584E3,1.41766E5,1.3E1,1.6882806E-1,-1.6449961E-1,-8.503518E-2,4.37985E-1,1.8594E5,1.579E3,2.2554E4,1.44E2,-1.5188593E-1,2.3450646E-1,-8.5114874E-2,1.6578868E-1,-1.541871E-1,-7.5705975E-2,-7.404919E-2,3.9061156E-1,-1.638832E-1,-4.360704E-3,4.9032545E-1,4.515583E-2,-1.6024864E-1,6.1364934E-2,2.501236E-1,4.5003277E-1,2.842843E-1,-1.21170126E-1,-1.455206E-1,3.9380923E-1,-1.5804268E-1,2.303405E-2,4.482579E-1,-6.522339E-2,-1.6056667E-1,6.002637E-2,4.3042272E-1,6.0283773E-2,-1.393955E-1,1.4468253E-1,-1.6385883E-1,6.1219018E-2,-1.4957158E-1,5.399582E-2,4.994956E-1,4.113669E-2,4.3211856E-1,1.2449418E-1,-1.4599624E-1,2.7227363E-1],"split_indices":[512,512,365,438,365,438,518,364,511,438,515,518,365,512,517,512,74,73,363,365,293,228,516,0,365,0,438,438,516,512,228,283,503,0,0,74,365,0,0,0,513,0,319,374,137,0,518,517,515,218,293,365,275,0,0,0,0,365,228,438,227,0,0,0,0,0,0,0,0,0,0,0,0,0,0,0,0,0,0,0,0,0,0,0,0,0,0,0,0,0,0,0,0,0,0,0,0,0,0,0,0],"split_type":[0,0,0,0,0,0,0,0,0,0,0,0,0,0,0,0,0,0,0,0,0,0,0,0,0,0,0,0,0,0,0,0,0,0,0,0,0,0,0,0,0,0,0,0,0,0,0,0,0,0,0,0,0,0,0,0,0,0,0,0,0,0,0,0,0,0,0,0,0,0,0,0,0,0,0,0,0,0,0,0,0,0,0,0,0,0,0,0,0,0,0,0,0,0,0,0,0,0,0,0,0],"sum_hessian":[7.494048E3,5.947518E3,1.5465295E3,5.080792E3,8.667264E2,6.539905E2,8.9253906E2,1.3264169E3,3.754375E3,5.9998694E2,2.6673944E2,1.9069466E2,4.6329584E2,4.0323727E1,8.5221533E2,1.3238655E3,2.5514445E0,4.4101514E2,3.3133599E3,4.0780247E1,5.5920667E2,2.2327505E2,4.34644E1,5.2238873E1,1.3845578E2,1.5899845E0,4.6170587E2,3.307738E1,7.246343E0,1.48608055E1,8.3735455E2,1.0136524E3,3.1021304E2,1.0477413E0,1.5037031E0,4.3370874E2,7.3063993E0,3.3119314E3,1.4283553E0,2.326857E1,1.7511677E1,1.1217883E0,5.580849E2,1.9752988E2,2.5745174E1,3.4409878E1,9.054521E0,4.534666E1,6.8922143E0,2.0362547E1,1.1809324E2,8.852891E1,3.7317694E2,2.0132172E0,3.1064165E1,1.0479573E0,6.1983857E0,9.752167E0,5.108639E0,8.170503E2,2.0304216E1,1.0105053E3,3.1470602E0,2.920329E2,1.8180162E1,3.968606E2,3.684814E1,3.789698E0,3.5167012E0,3.3100454E3,1.8861234E0,4.1959553E0,1.3315722E1,5.5703656E2,1.0483025E0,1.2596243E2,7.1567444E1,3.2918386E0,2.2453335E1,5.658934E0,3.3955867E0,3.9504147E1,5.842511E0,3.437368E0,3.4548464E0,1.9334091E1,1.0284545E0,1.00693146E2,1.7400093E1,7.2533936E1,1.5994978E1,3.721269E2,1.0500414E0,8.734424E0,1.0177433E0,3.993137E0,1.115502E0,8.0776184E2,9.288474E0,5.29671E0,1.5007507E1],"tree_param":{"num_deleted":"0","num_feature":"519","num_nodes":"101","size_leaf_vector":"1"}},{"base_weights":[-1.8221375E-1,2.7662614E-1,-4.1516098E-1,1.271235E0,-2.0241079E-1,-4.5339623E-1,1.8846548E-1,1.3622426E0,-2.156156E-1,-4.579579E-1,3.4464005E-1,-3.5008237E-1,-5.2567726E-1,8.7095064E-1,-2.1391308E-1,1.3899281E0,6.024942E-2,-5.172492E-1,6.9268394E-1,-1.7986853E-1,-5.054471E-1,-5.0014746E-1,6.697085E-1,7.1768653E-1,-4.2040125E-1,-5.4345363E-1,-4.8105997E-1,1.2441285E0,-4.21265E-1,-3.863491E-1,4.855482E-1,9.8941207E-1,1.4436171E0,1.1910185E0,-4.5639274E-1,-1.6233337E-1,3.6415022E-2,1.3486398E0,-1.3579313E-1,1.88757E-1,-3.645792E-1,-5.241944E-1,-1.9981045E-1,-5.2460146E-1,3.724997E-1,1.0668851E0,1.104931E-1,1.0786942E0,-2.5911695E-1,-4.4036654E-1,3.6103055E-1,-5.439494E-1,4.7852896E-2,-4.9236977E-1,1.9715816E-1,1.3792784E0,1.6053012E-1,1.9762369E-1,-4.9444586E-1,-4.8215002E-1,1.4111114E-1,1.543982E0,-2.780966E-1,1.3401769E-1,3.7184373E-1,4.3607572E-1,5.5596553E-2,1.78936E-2,4.5441282E-1,-1.5973724E-1,5.977756E-2,3.8913954E-2,4.5858398E-1,2.901735E-1,-2.001803E-2,-1.1879577E-1,2.4832721E-1,-1.5818375E-1,1.4830038E-1,-1.2570363E-1,1.7207082E-1,-1.6126272E-1,7.6665625E-2,3.2462695E-1,-1.1613559E-1,-1.1728407E-1,3.570111E-1,-1.0795662E-1,1.4126983E-1,3.96505E-1,-9.19426E-3,-1.2688403E-1,3.446153E-1,-1.3607644E-1,9.047602E-2,-1.3896757E-1,4.8435056E-1,-1.6333461E-1,-2.549124E-2,-1.5257248E-1,-6.890028E-2,4.172027E-1,-9.491923E-2,4.220949E-1,-1.0104521E-1,2.5238046E-1,-1.5376662E-1,6.2416084E-2,-1.6004916E-1,-1.5105082E-1,1.2911269E-1,2.7529502E-1,-8.837206E-2,5.733501E-1,-1.1783743E-1,1.4114435E-1,-1.5832113E-1],"categories":[],"categories_nodes":[],"categories_segments":[],"categories_sizes":[],"default_left":[0,0,0,0,0,0,0,0,0,0,0,0,0,0,0,0,0,0,0,0,0,0,0,0,0,0,0,0,0,0,0,0,0,0,0,0,0,0,0,0,0,0,0,0,0,0,0,0,0,0,0,0,0,0,0,0,0,0,0,0,0,0,0,0,0,0,0,0,0,0,0,0,0,0,0,0,0,0,0,0,0,0,0,0,0,0,0,0,0,0,0,0,0,0,0,0,0,0,0,0,0,0,0,0,0,0,0,0,0,0,0,0,0,0,0,0,0],"id":10,"left_children":[1,3,5,7,9,11,13,15,17,19,21,23,25,27,29,31,33,35,37,39,41,43,45,47,49,51,53,55,57,59,61,63,65,67,69,-1,-1,71,-1,73,75,77,79,81,83,85,87,89,91,93,95,97,-1,99,101,103,105,-1,107,109,111,113,115,-1,-1,-1,-1,-1,-1,-1,-1,-1,-1,-1,-1,-1,-1,-1,-1,-1,-1,-1,-1,-1,-1,-1,-1,-1,-1,-1,-1,-1,-1,-1,-1,-1,-1,-1,-1,-1,-1,-1,-1,-1,-1,-1,-1,-1,-1,-1,-1,-1,-1,-1,-1,-1,-1],"loss_changes":[8.083944E2,1.2137904E3,1.1585602E2,1.1234668E2,2.4059747E2,3.5045227E1,8.24375E1,2.8049072E1,1.3680524E1,1.5396362E1,1.5087599E2,1.4633458E2,1.9384155E0,5.4189545E1,2.3010464E1,1.5003906E1,1.0647682E1,6.306858E-1,1.0038958E1,1.1821478E1,5.631531E0,3.4582367E0,8.790166E1,4.278589E1,2.8637665E1,7.7526855E-1,6.225418E0,1.2461426E1,2.3556757E0,7.766903E0,3.1035507E1,1.2135849E1,8.15564E0,1.9974728E0,7.342081E-1,0E0,0E0,1.6073856E0,0E0,1.1655382E1,4.646573E0,3.2223206E0,1.0322764E1,1.6431427E0,2.9806514E0,4.204593E1,2.8256765E1,2.3817108E1,8.174158E0,1.7601685E1,4.8300415E1,4.0625E-1,0E0,3.2298584E0,8.909947E0,4.1284637E0,5.3500667E0,0E0,7.8655624E-1,2.7334824E0,8.455275E0,1.2145264E1,4.517212E0,0E0,0E0,0E0,0E0,0E0,0E0,0E0,0E0,0E0,0E0,0E0,0E0,0E0,0E0,0E0,0E0,0E0,0E0,0E0,0E0,0E0,0E0,0E0,0E0,0E0,0E0,0E0,0E0,0E0,0E0,0E0,0E0,0E0,0E0,0E0,0E0,0E0,0E0,0E0,0E0,0E0,0E0,0E0,0E0,0E0,0E0,0E0,0E0,0E0,0E0,0E0,0E0,0E0,0E0],"parents":[2147483647,0,0,1,1,2,2,3,3,4,4,5,5,6,6,7,7,8,8,9,9,10,10,11,11,12,12,13,13,14,14,15,15,16,16,17,17,18,18,19,19,20,20,21,21,22,22,23,23,24,24,25,25,26,26,27,27,28,28,29,29,30,30,31,31,32,32,33,33,34,34,37,37,39,39,40,40,41,41,42,42,43,43,44,44,45,45,46,46,47,47,48,48,49,49,50,50,51,51,53,53,54,54,55,55,56,56,58,58,59,59,60,60,61,61,62,62],"right_children":[2,4,6,8,10,12,14,16,18,20,22,24,26,28,30,32,34,36,38,40,42,44,46,48,50,52,54,56,58,60,62,64,66,68,70,-1,-1,72,-1,74,76,78,80,82,84,86,88,90,92,94,96,98,-1,100,102,104,106,-1,108,110,112,114,116,-1,-1,-1,-1,-1,-1,-1,-1,-1,-1,-1,-1,-1,-1,-1,-1,-1,-1,-1,-1,-1,-1,-1,-1,-1,-1,-1,-1,-1,-1,-1,-1,-1,-1,-1,-1,-1,-1,-1,-1,-1,-1,-1,-1,-1,-1,-1,-1,-1,-1,-1,-1,-1,-1],"split_conditions":[1.2123221E-13,-4.1934953E-17,1.0735798E-25,1.81042E5,2.4256E4,3.277069E-13,2.9608285E-13,6.767768E-8,2.0591E4,1.50276E5,1.2714E4,-1.4253268E-16,-3.5121946E-25,-4.6149892E-17,1.204084E-12,7.97E2,-1.4844724E-16,3.1989542E-26,1.89925E5,-3.8820442E-18,2.2369E4,4.8922637E-8,2.4298E4,1.91E2,3.8213E4,2.03E2,1.4226374E-12,1.76E3,-1.5771835E-25,2.7147E4,5.838715E-13,-7.6801125E-27,1.17E2,1.19E2,3.1386E4,-1.6233337E-1,3.6415022E-2,-2.2020918E-26,-1.3579313E-1,2.3456778E-14,1.913E4,1.47E4,3.45E2,1E0,7.18E2,-7.8315115E-26,1.35632E5,2.9E1,4.57E2,4.06E2,-8.381828E-26,1E0,4.7852896E-2,3.1794E4,1.558E3,1.056E3,3.5E1,1.9762369E-1,1.4629397E-13,2E0,7.49E2,3E1,4.3E1,1.3401769E-1,3.7184373E-1,4.3607572E-1,5.5596553E-2,1.78936E-2,4.5441282E-1,-1.5973724E-1,5.977756E-2,3.8913954E-2,4.5858398E-1,2.901735E-1,-2.001803E-2,-1.1879577E-1,2.4832721E-1,-1.5818375E-1,1.4830038E-1,-1.2570363E-1,1.7207082E-1,-1.6126272E-1,7.6665625E-2,3.2462695E-1,-1.1613559E-1,-1.1728407E-1,3.570111E-1,-1.0795662E-1,1.4126983E-1,3.96505E-1,-9.19426E-3,-1.2688403E-1,3.446153E-1,-1.3607644E-1,9.047602E-2,-1.3896757E-1,4.8435056E-1,-1.6333461E-1,-2.549124E-2,-1.5257248E-1,-6.890028E-2,4.172027E-1,-9.491923E-2,4.220949E-1,-1.0104521E-1,2.5238046E-1,-1.5376662E-1,6.2416084E-2,-1.6004916E-1,-1.5105082E-1,1.2911269E-1,2.7529502E-1,-8.837206E-2,5.733501E-1,-1.1783743E-1,1.4114435E-1,-1.5832113E-1],"split_indices":[514,517,518,365,438,514,514,513,438,365,292,517,518,517,515,429,517,518,365,517,438,513,292,64,438,509,515,0,516,438,514,518,209,9,292,0,0,518,0,514,219,374,300,358,283,518,365,237,357,284,518,285,0,438,0,137,81,0,514,247,364,8,72,0,0,0,0,0,0,0,0,0,0,0,0,0,0,0,0,0,0,0,0,0,0,0,0,0,0,0,0,0,0,0,0,0,0,0,0,0,0,0,0,0,0,0,0,0,0,0,0,0,0,0,0,0,0],"split_type":[0,0,0,0,0,0,0,0,0,0,0,0,0,0,0,0,0,0,0,0,0,0,0,0,0,0,0,0,0,0,0,0,0,0,0,0,0,0,0,0,0,0,0,0,0,0,0,0,0,0,0,0,0,0,0,0,0,0,0,0,0,0,0,0,0,0,0,0,0,0,0,0,0,0,0,0,0,0,0,0,0,0,0,0,0,0,0,0,0,0,0,0,0,0,0,0,0,0,0,0,0,0,0,0,0,0,0,0,0,0,0,0,0,0,0,0,0],"sum_hessian":[7.5611084E3,2.546008E3,5.0151006E3,8.270913E2,1.7189166E3,4.716589E3,2.9851193E2,7.7946533E2,4.7625957E1,1.1717247E3,5.471919E2,1.943919E3,2.7726697E3,1.1028687E2,1.8822505E2,7.631698E2,1.6295547E1,3.607611E1,1.1549845E1,1.7160716E2,1.0001176E3,1.5189883E2,3.9529306E2,1.1953982E2,1.8243792E3,1.9747205E3,7.9794916E2,8.5602905E1,2.4683973E1,1.5135872E2,3.6866344E1,9.250638E1,6.706634E2,4.701067E0,1.15944805E1,3.4923912E1,1.1522007E0,7.23098E0,4.318865E0,5.7277344E1,1.1432983E2,9.416434E2,5.8474216E1,1.481462E2,3.7526355E0,2.306024E2,1.6469066E2,8.7205894E1,3.2333923E1,1.7793538E3,4.502537E1,1.9735549E3,1.1656076E0,7.8513055E2,1.28186035E1,7.586758E1,9.735323E0,1.0586531E0,2.3625319E1,1.281662E2,2.3192516E1,1.5022653E1,2.184369E1,3.0059258E1,6.2447124E1,6.65238E2,5.4254117E0,1.3092406E0,3.3918264E0,1.0557551E1,1.0369288E0,1.1516696E0,6.0793104E0,1.3464266E1,4.3813076E1,1.12046364E2,2.28346E0,9.39281E2,2.3623927E0,4.591779E1,1.2556426E1,1.4603479E2,2.1113997E0,1.720722E0,2.0319135E0,1.7793549E1,2.1280885E2,7.14484E1,9.3242256E1,7.137958E1,1.582632E1,2.95901E1,2.7438252E0,1.7485828E3,3.0770992E1,2.7543684E1,1.748169E1,1.9712245E3,2.3304815E0,7.386311E2,4.6499435E1,3.342531E0,9.476072E0,7.48395E1,1.0280825E0,4.7159185E0,5.0194044E0,1.0162451E0,2.2609074E1,1.2567372E2,2.492474E0,7.9380226E0,1.5254494E1,1.2639588E1,2.383065E0,5.2415686E0,1.6602123E1],"tree_param":{"num_deleted":"0","num_feature":"519","num_nodes":"117","size_leaf_vector":"1"}},{"base_weights":[-5.0392765E-1,-5.32659E-1,1.2489148E0,-5.4230255E-1,-7.6304906E-4,5.4922426E-1,1.3965981E0,-5.504824E-1,-4.7562099E-1,-3.370059E-1,1.384523E0,-8.832999E-2,1.1537374E0,4.8600557E-1,1.4423565E0,-4.207935E-1,-5.5163085E-1,-5.243473E-1,2.4233662E-1,-3.9056483E-1,7.536317E-1,-1.54109E-1,1.5822674E0,-3.245658E-1,3.2578924E-1,1.4407879E0,-1.02312796E-1,3.1063026E-1,-1.649559E-1,4.774474E-1,1.4630282E0,-4.8252666E-1,-1.7970953E-2,-1.6553985E-1,-8.731738E-3,-5.300781E-1,3.8229066E-1,1.6674792E0,-1.9882369E-1,-4.3481198E-1,2.3799504E-1,1.3144441E0,-9.9735774E-2,-1.0645642E-1,4.7804434E-2,4.085181E-2,1.6646749E0,-1.5101165E-1,7.575326E-2,4.7023082E-1,1.3080482E-1,-1.09862305E-1,4.8802473E-2,3.1958044E-1,-9.174235E-2,4.426684E-1,1.3671637E-1,-1.5626064E-1,-1.4200815E-2,3.111366E-1,-1.0259146E-1,-1.5988691E-1,1.2595752E-1,6.4728785E-1,-1.1190861E-1,-1.0852686E-1,2.344921E-1,1.455645E-1,-1.39795E-1,-8.0674425E-2,3.3549193E-1,6.0877E-2,5.089308E-1,5.1564837E-1,1.4802492E-1],"categories":[],"categories_nodes":[],"categories_segments":[],"categories_sizes":[],"default_left":[0,0,0,0,0,0,0,0,0,0,0,0,0,0,0,0,0,0,0,0,0,0,0,0,0,0,0,0,0,0,0,0,0,0,0,0,0,0,0,0,0,0,0,0,0,0,0,0,0,0,0,0,0,0,0,0,0,0,0,0,0,0,0,0,0,0,0,0,0,0,0,0,0,0,0],"id":11,"left_children":[1,3,5,7,9,11,13,15,17,19,21,23,25,27,29,31,33,35,37,39,41,43,45,47,-1,49,-1,-1,51,53,55,57,59,-1,-1,61,-1,63,65,67,69,71,-1,-1,-1,-1,73,-1,-1,-1,-1,-1,-1,-1,-1,-1,-1,-1,-1,-1,-1,-1,-1,-1,-1,-1,-1,-1,-1,-1,-1,-1,-1,-1,-1],"loss_changes":[3.4462634E2,3.4470703E1,1.0645355E1,3.338623E0,5.667617E1,8.155668E0,3.0718536E0,6.425781E-1,2.5615784E1,6.013566E0,7.4746513E0,3.431511E0,5.1242714E0,2.2597177E0,1.0110016E0,1.3781071E0,4.967041E-1,7.711624E0,2.987456E1,2.7173958E0,3.4363964E0,2.8419298E-1,2.2934837E0,1.160013E0,0E0,4.9357033E-1,0E0,0E0,2.927139E-1,1.8368685E0,3.8076782E-1,7.8157425E-1,3.2430737E0,0E0,0E0,2.0861053E0,0E0,1.2020515E1,6.157621E0,2.7543373E0,3.3472867E0,1.1203327E0,0E0,0E0,0E0,0E0,4.152832E-1,0E0,0E0,0E0,0E0,0E0,0E0,0E0,0E0,0E0,0E0,0E0,0E0,0E0,0E0,0E0,0E0,0E0,0E0,0E0,0E0,0E0,0E0,0E0,0E0,0E0,0E0,0E0,0E0],"parents":[2147483647,0,0,1,1,2,2,3,3,4,4,5,5,6,6,7,7,8,8,9,9,10,10,11,11,12,12,13,13,14,14,15,15,16,16,17,17,18,18,19,19,20,20,21,21,22,22,23,23,25,25,28,28,29,29,30,30,31,31,32,32,35,35,37,37,38,38,39,39,40,40,41,41,46,46],"right_children":[2,4,6,8,10,12,14,16,18,20,22,24,26,28,30,32,34,36,38,40,42,44,46,48,-1,50,-1,-1,52,54,56,58,60,-1,-1,62,-1,64,66,68,70,72,-1,-1,-1,-1,74,-1,-1,-1,-1,-1,-1,-1,-1,-1,-1,-1,-1,-1,-1,-1,-1,-1,-1,-1,-1,-1,-1,-1,-1,-1,-1,-1,-1],"split_conditions":[2.16513E5,2.09997E5,5.0589183E-8,1.93823E5,5.606457E-8,-1.4285086E-29,1E0,3.7169E4,6.1078026E-8,2.174E3,7.1E1,7E0,3.0304E4,9.36E2,6.08E2,1.87E2,4E0,8.186E3,1.0140755E-3,1.8672374E-27,1.09E2,7.8E1,7E0,3.6E1,3.2578924E-1,2.713E3,-1.02312796E-1,3.1063026E-1,2.02E2,3.46E2,1.7568E4,4E0,1E0,-1.6553985E-1,-8.731738E-3,4E0,3.8229066E-1,-2.4322743E-26,4.9E1,4.3788825E-15,2.49E2,7.56E2,-9.9735774E-2,-1.0645642E-1,4.7804434E-2,4.085181E-2,8E0,-1.5101165E-1,7.575326E-2,4.7023082E-1,1.3080482E-1,-1.09862305E-1,4.8802473E-2,3.1958044E-1,-9.174235E-2,4.426684E-1,1.3671637E-1,-1.5626064E-1,-1.4200815E-2,3.111366E-1,-1.0259146E-1,-1.5988691E-1,1.2595752E-1,6.4728785E-1,-1.1190861E-1,-1.0852686E-1,2.344921E-1,1.455645E-1,-1.39795E-1,-8.0674425E-2,3.3549193E-1,6.0877E-2,5.089308E-1,5.1564837E-1,1.4802492E-1],"split_indices":[365,365,513,365,513,518,65,365,513,447,74,164,438,447,73,0,208,429,512,516,510,145,154,501,0,146,0,0,147,210,438,65,1,0,0,93,0,516,428,514,510,155,0,0,0,0,91,0,0,0,0,0,0,0,0,0,0,0,0,0,0,0,0,0,0,0,0,0,0,0,0,0,0,0,0],"split_type":[0,0,0,0,0,0,0,0,0,0,0,0,0,0,0,0,0,0,0,0,0,0,0,0,0,0,0,0,0,0,0,0,0,0,0,0,0,0,0,0,0,0,0,0,0,0,0,0,0,0,0,0,0,0,0,0,0,0,0,0,0,0,0,0,0,0,0,0,0,0,0,0,0,0,0],"sum_hessian":[6.828826E3,6.719383E3,1.094434E2,6.5997075E3,1.1967512E2,1.98966E1,8.954679E1,5.872114E3,7.2759393E2,9.690952E1,2.276559E1,1.0099244E1,9.797358E0,4.8405614E0,8.470623E1,5.4766693E1,5.817347E3,6.816045E2,4.5989437E1,9.2985115E1,3.9244099E0,2.6177506E0,2.014784E1,9.010239E0,1.0890054E0,8.249318E0,1.5480392E0,2.304706E0,2.5358553E0,2.282052E0,8.242418E1,4.731737E1,7.449324E0,5.815414E3,1.9329901E0,6.801427E2,1.4617715E0,1.0213988E1,3.5775448E1,8.715792E1,5.8271966E0,2.4493828E0,1.4750271E0,1.5152677E0,1.1024829E0,1.2292516E0,1.8918589E1,6.976348E0,2.0338902E0,6.8286037E0,1.4207146E0,1.4979647E0,1.0378904E0,1.0979819E0,1.1840702E0,8.09521E1,1.4720782E0,4.3305134E1,4.012237E0,1.2330301E0,6.2162943E0,6.7852576E2,1.616929E0,8.189424E0,2.0245643E0,3.1218607E1,4.5568404E0,2.3788776E0,8.477904E1,4.138593E0,1.6886034E0,1.0181096E0,1.4312732E0,1.7635698E1,1.2828896E0],"tree_param":{"num_deleted":"0","num_feature":"519","num_nodes":"75","size_leaf_vector":"1"}},{"base_weights":[3.583395E-2,-4.9693426E-1,8.158769E-1,-7.672393E-2,-5.36994E-1,-3.413606E-2,1.0129445E0,3.8489407E-1,-3.4317458E-1,-7.1955025E-2,-5.422991E-1,8.316836E-1,-3.0706355E-1,-3.5865474E-1,1.0898076E0,-1.925274E-1,1.1802433E0,-4.5289692E-1,1.1041761E-1,-4.457698E-1,2.2121187E-1,-4.405782E-1,-5.484045E-1,-1.6973178E-1,9.794055E-1,-4.4289494E-1,2.6181412E-1,1.1127958E0,-4.9155623E-1,1.1816336E0,8.744471E-2,7.331594E-1,-3.448424E-1,1.4058785E0,-2.284187E-1,-3.142095E-1,-5.290328E-1,-2.4381334E-1,1.2626439E0,-4.860923E-1,5.8696132E-2,9.941969E-1,-7.2608334E-3,-5.1575166E-1,-5.0455295E-2,-3.539373E-1,-5.4958624E-1,-4.3145838E-1,8.3708614E-1,1.8782952E-1,1.2817231E0,-4.5876348E-1,2.9509047E-1,-6.682676E-2,1.2218076E0,1.4467999E0,-1.1922783E-1,9.2275304E-1,-5.2733713E-1,1.2333564E0,-6.4917505E-2,-1.0945735E-1,1.1824973E0,-1.4644137E-1,5.307442E-1,3.7769184E-1,-1.173669E-1,-1.306102E-1,4.4986114E-1,-1.2133793E-1,1.9027874E-1,2.0310394E-1,-1.1033429E-1,6.861242E-2,-1.6287479E-1,1.8239145E-1,-1.2869689E-1,4.3352658E-1,-9.934483E-2,-1.588299E-1,4.8831847E-2,4.809977E-3,5.9102494E-1,9.532479E-2,-1.0806784E-1,-1.5748093E-1,1.9172503E-1,3.4648192E-1,-9.458682E-2,-1.5882643E-1,1.8039553E-1,2.0530567E-2,-1.6494653E-1,-1.6222249E-1,3.7458386E-2,-8.886193E-2,3.8188174E-1,-2.9884761E-2,3.8043028E-1,4.007809E-1,-1.2419777E-1,-1.5886714E-1,-1.0292981E-1,-5.983684E-2,4.272862E-1,7.773189E-2,-1.5457301E-1,6.468211E-2,6.1091167E-1,1.1657705E-2,5.018721E-1,4.2908058E-1,1.9139526E-2,-6.129865E-2,-1.6689491E-1,3.8360304E-1,2.7077982E-2,-1.324458E-1,3.9461234E-1,4.793261E-2,-1.447974E-1,4.3176728E-1,-1.3483728E-1],"categories":[],"categories_nodes":[],"categories_segments":[],"categories_sizes":[],"default_left":[0,0,0,0,0,0,0,0,0,0,0,0,0,0,0,0,0,0,0,0,0,0,0,0,0,0,0,0,0,0,0,0,0,0,0,0,0,0,0,0,0,0,0,0,0,0,0,0,0,0,0,0,0,0,0,0,0,0,0,0,0,0,0,0,0,0,0,0,0,0,0,0,0,0,0,0,0,0,0,0,0,0,0,0,0,0,0,0,0,0,0,0,0,0,0,0,0,0,0,0,0,0,0,0,0,0,0,0,0,0,0,0,0,0,0,0,0,0,0,0,0,0,0],"id":12,"left_children":[1,3,5,7,9,11,13,15,17,19,21,23,25,27,29,31,33,35,37,39,41,43,45,47,49,51,53,55,57,59,61,63,65,67,69,71,73,75,77,79,-1,81,83,85,87,89,91,93,95,97,99,101,103,105,107,109,-1,111,113,115,117,119,121,-1,-1,-1,-1,-1,-1,-1,-1,-1,-1,-1,-1,-1,-1,-1,-1,-1,-1,-1,-1,-1,-1,-1,-1,-1,-1,-1,-1,-1,-1,-1,-1,-1,-1,-1,-1,-1,-1,-1,-1,-1,-1,-1,-1,-1,-1,-1,-1,-1,-1,-1,-1,-1,-1,-1,-1,-1,-1,-1,-1],"loss_changes":[3.4144785E3,8.213806E1,5.585591E2,5.2537144E1,1.0956421E1,1.487737E2,2.8575415E2,7.20529E1,1.3520823E1,5.7340207E0,2.494995E0,2.2489685E1,3.7097736E1,2.878332E1,2.3583813E2,1.3150063E1,2.1274918E1,2.1371422E0,2.2153986E1,6.882696E-1,5.215069E0,7.4402313E0,7.598877E-1,5.697559E0,3.1264862E1,4.664139E0,2.938368E1,6.762847E0,7.223236E0,1.51479E2,4.6746727E1,1.7621017E1,6.3859863E0,1.0476006E1,1.7694329E0,4.485121E0,1.5902824E0,6.8502493E0,4.18528E0,7.0105934E-1,0E0,6.397262E0,2.839429E0,2.5984116E0,1.384829E1,4.994055E0,6.3793945E-1,1.0848105E0,2.6088805E0,1.1788339E1,9.295334E0,2.9214172E0,5.1698413E0,1.0384529E1,1.9017212E1,3.2015572E0,0E0,1.4992168E0,1.1076279E0,1.1668994E2,4.969976E1,1.8581879E1,1.4487621E1,0E0,0E0,0E0,0E0,0E0,0E0,0E0,0E0,0E0,0E0,0E0,0E0,0E0,0E0,0E0,0E0,0E0,0E0,0E0,0E0,0E0,0E0,0E0,0E0,0E0,0E0,0E0,0E0,0E0,0E0,0E0,0E0,0E0,0E0,0E0,0E0,0E0,0E0,0E0,0E0,0E0,0E0,0E0,0E0,0E0,0E0,0E0,0E0,0E0,0E0,0E0,0E0,0E0,0E0,0E0,0E0,0E0,0E0,0E0,0E0],"parents":[2147483647,0,0,1,1,2,2,3,3,4,4,5,5,6,6,7,7,8,8,9,9,10,10,11,11,12,12,13,13,14,14,15,15,16,16,17,17,18,18,19,19,20,20,21,21,22,22,23,23,24,24,25,25,26,26,27,27,28,28,29,29,30,30,31,31,32,32,33,33,34,34,35,35,36,36,37,37,38,38,39,39,41,41,42,42,43,43,44,44,45,45,46,46,47,47,48,48,49,49,50,50,51,51,52,52,53,53,54,54,55,55,57,57,58,58,59,59,60,60,61,61,62,62],"right_children":[2,4,6,8,10,12,14,16,18,20,22,24,26,28,30,32,34,36,38,40,42,44,46,48,50,52,54,56,58,60,62,64,66,68,70,72,74,76,78,80,-1,82,84,86,88,90,92,94,96,98,100,102,104,106,108,110,-1,112,114,116,118,120,122,-1,-1,-1,-1,-1,-1,-1,-1,-1,-1,-1,-1,-1,-1,-1,-1,-1,-1,-1,-1,-1,-1,-1,-1,-1,-1,-1,-1,-1,-1,-1,-1,-1,-1,-1,-1,-1,-1,-1,-1,-1,-1,-1,-1,-1,-1,-1,-1,-1,-1,-1,-1,-1,-1,-1,-1,-1,-1,-1,-1],"split_conditions":[1.67651E5,1.4393E4,1.377E4,1.0566183E-3,1.1239E4,1.93823E5,-1.4239548E-25,1.41371E5,1.61808E5,4.8793714E-28,1.6437E4,-4.6149892E-17,1.2595387E-13,4.4552984E-13,1.0648214E-3,7.71E2,2.3876E4,3.3E1,1.0382E4,4.27E2,6.63E2,1.59665E5,1.3243E4,2.558E3,6.3296746E-14,6.8209906E-27,6.16E2,7.755E3,9.312E3,2.4083E4,6.518E3,-2.1531268E-17,1.3E1,5.0776748E-8,2.75E2,1.37E3,5.9619055E-8,1.0777586E-3,7.95E2,1E0,5.8696132E-2,3.5E1,3.1E2,6.041E3,6.0779804E-8,1.46828E5,9.0195757E-4,2.15E2,5E1,2.1497E4,1.76E3,1.172E4,1.75E2,2.801294E-13,1.185E3,7.579E3,-1.1922783E-1,5.8E3,1.2903E4,2.08381E5,1.84147E5,1.892E3,5.703E3,-1.4644137E-1,5.307442E-1,3.7769184E-1,-1.173669E-1,-1.306102E-1,4.4986114E-1,-1.2133793E-1,1.9027874E-1,2.0310394E-1,-1.1033429E-1,6.861242E-2,-1.6287479E-1,1.8239145E-1,-1.2869689E-1,4.3352658E-1,-9.934483E-2,-1.588299E-1,4.8831847E-2,4.809977E-3,5.9102494E-1,9.532479E-2,-1.0806784E-1,-1.5748093E-1,1.9172503E-1,3.4648192E-1,-9.458682E-2,-1.5882643E-1,1.8039553E-1,2.0530567E-2,-1.6494653E-1,-1.6222249E-1,3.7458386E-2,-8.886193E-2,3.8188174E-1,-2.9884761E-2,3.8043028E-1,4.007809E-1,-1.2419777E-1,-1.5886714E-1,-1.0292981E-1,-5.983684E-2,4.272862E-1,7.773189E-2,-1.5457301E-1,6.468211E-2,6.1091167E-1,1.1657705E-2,5.018721E-1,4.2908058E-1,1.9139526E-2,-6.129865E-2,-1.6689491E-1,3.8360304E-1,2.7077982E-2,-1.324458E-1,3.9461234E-1,4.793261E-2,-1.447974E-1,4.3176728E-1,-1.3483728E-1],"split_indices":[365,438,292,512,292,365,518,365,365,516,438,517,514,515,512,366,292,72,228,300,439,365,292,293,514,516,437,146,438,438,228,517,300,513,503,374,513,512,364,427,0,74,220,429,513,365,512,446,291,301,0,292,218,515,366,219,0,146,438,365,365,0,73,0,0,0,0,0,0,0,0,0,0,0,0,0,0,0,0,0,0,0,0,0,0,0,0,0,0,0,0,0,0,0,0,0,0,0,0,0,0,0,0,0,0,0,0,0,0,0,0,0,0,0,0,0,0,0,0,0,0,0,0],"split_type":[0,0,0,0,0,0,0,0,0,0,0,0,0,0,0,0,0,0,0,0,0,0,0,0,0,0,0,0,0,0,0,0,0,0,0,0,0,0,0,0,0,0,0,0,0,0,0,0,0,0,0,0,0,0,0,0,0,0,0,0,0,0,0,0,0,0,0,0,0,0,0,0,0,0,0,0,0,0,0,0,0,0,0,0,0,0,0,0,0,0,0,0,0,0,0,0,0,0,0,0,0,0,0,0,0,0,0,0,0,0,0,0,0,0,0,0,0,0,0,0,0,0,0],"sum_hessian":[8.21416E3,4.8808853E3,3.3332747E3,4.2506284E2,4.4558223E3,6.2750006E2,2.7057744E3,1.5539719E2,2.6966565E2,5.042263E1,4.4054E3,1.4990445E2,4.7759564E2,1.4338846E2,2.562386E3,9.047239E1,6.49248E1,2.1714143E2,5.252422E1,2.1934101E1,2.848853E1,2.5358717E2,4.1518125E3,1.925111E1,1.3065334E2,3.857187E2,9.187693E1,1.1267257E1,1.321212E2,2.347183E3,2.1520305E2,1.2244373E1,7.822802E1,5.5962814E1,8.961983E0,7.8774536E1,1.3836691E2,4.0776596E1,1.17476225E1,2.086463E1,1.0694702E0,5.7347674E0,2.2753761E1,2.1234752E2,4.1239647E1,2.6892641E1,4.12492E3,1.5732772E1,3.5183377E0,3.6556526E1,9.409682E1,3.7796976E2,7.748935E0,6.913863E1,2.2738293E1,9.261056E0,2.0062008E0,2.6484203E0,1.294728E2,2.2536824E3,9.3500694E1,1.8316762E2,3.2035435E1,5.8622947E0,6.3820786E0,1.4638685E0,7.676415E1,2.5322623E0,5.343055E1,7.8842587E0,1.0777235E0,3.4424253E0,7.533211E1,2.2110975E0,1.361558E2,6.8739924E0,3.3902607E1,1.0624696E1,1.1229266E0,1.9730785E1,1.1338457E0,3.371664E0,2.3631032E0,1.189793E1,1.0855832E1,2.1121313E2,1.1343836E0,6.8231263E0,3.441652E1,2.3095661E1,3.79698E0,1.4610034E0,4.123459E3,1.3173062E1,2.5597095E0,1.0662645E0,2.452073E0,2.9590647E1,6.9658794E0,9.1387276E1,2.7095375E0,2.3224376E2,1.4572601E2,5.961418E0,1.787517E0,4.028183E1,2.8856806E1,1.073833E1,1.1999963E1,1.4436277E0,7.817428E0,1.246686E0,1.4017345E0,1.1322362E1,1.1815042E2,2.1676238E3,8.605852E1,7.399396E1,1.9506733E1,1.0673745E2,7.643017E1,2.778293E1,4.2525067E0],"tree_param":{"num_deleted":"0","num_feature":"519","num_nodes":"123","size_leaf_vector":"1"}},{"base_weights":[-1.357566E-1,-4.5180085E-1,1.0719458E0,1.0699732E0,-4.9006754E-1,1.3112088E0,3.1329787E-1,-6.858322E-2,1.3320143E0,3.8221127E-1,-5.2745116E-1,1.3288556E0,-1.9242872E-2,6.4847213E-1,-1.4987838E-1,1.0534872E0,-2.8652728E-1,1.4890534E0,-9.0734676E-2,-2.7270454E-1,1.0980229E0,-5.412572E-1,-1.1696091E-1,1.3540001E0,5.9397215E-1,4.2814043E-1,-2.2568646E-1,9.528171E-1,-7.044536E-2,-3.2337132E-1,1.881375E-1,3.839603E-1,3.4681357E-2,-4.2415336E-1,4.1310278E-1,1.5275705E0,-1.1391696E-1,-4.2195746E-1,3.285494E-1,2.6880544E-1,-4.0909588E-1,1.2709489E0,1.840034E-1,-2.4927326E-1,-5.448884E-1,6.002939E-1,-3.800836E-1,1.3686122E0,3.9116883E-1,-5.174088E-2,1.4963986E0,-3.9346695E-1,2.1185903E-1,1.4471188E0,4.7423092E-1,1.0438262E0,-2.1592334E-1,-3.9953598E-1,4.4057956E-1,1.7906898E0,-8.583729E-2,-1.4967074E-1,5.8803108E-2,4.8161587E-1,-1.2259616E-1,-2.7014911E-2,4.6801198E-1,-1.5210073E-1,5.9157312E-2,4.4220188E-1,-1.4272699E-1,-1.5752055E-1,-1.0621315E-3,4.3143484E-1,2.308366E-1,3.8902557E-1,-1.0005151E-1,-1.3213769E-1,1.6692413E-1,-8.364137E-2,-1.6416074E-1,3.2520208E-1,-1.09501034E-1,1.1264465E-1,-1.357E-1,4.2092884E-1,3.2563168E-1,3.8160652E-1,-1.0125846E-1,1.2514369E-1,-1.6654184E-1,5.1134974E-1,-1.18124075E-1,1.1008742E-1,-1.5824549E-1,4.512642E-1,-1.1983101E-1,3.983434E-1,-8.436073E-3,3.8676563E-1,-9.423181E-2,-1.2364843E-1,7.751604E-2,-1.3813989E-1,7.128261E-2,3.5366204E-1,-5.520464E-2,6.6765136E-1,-9.398558E-2,-8.57305E-2,2.7008986E-1],"categories":[],"categories_nodes":[],"categories_segments":[],"categories_sizes":[],"default_left":[0,0,0,0,0,0,0,0,0,0,0,0,0,0,0,0,0,0,0,0,0,0,0,0,0,0,0,0,0,0,0,0,0,0,0,0,0,0,0,0,0,0,0,0,0,0,0,0,0,0,0,0,0,0,0,0,0,0,0,0,0,0,0,0,0,0,0,0,0,0,0,0,0,0,0,0,0,0,0,0,0,0,0,0,0,0,0,0,0,0,0,0,0,0,0,0,0,0,0,0,0,0,0,0,0,0,0,0,0,0,0],"id":13,"left_children":[1,3,5,7,9,11,13,15,17,19,21,23,25,27,29,31,33,35,37,39,41,43,45,47,49,-1,51,53,55,57,59,-1,-1,61,63,65,-1,67,-1,69,71,73,75,77,79,81,83,85,87,89,91,93,-1,95,97,99,101,103,105,107,109,-1,-1,-1,-1,-1,-1,-1,-1,-1,-1,-1,-1,-1,-1,-1,-1,-1,-1,-1,-1,-1,-1,-1,-1,-1,-1,-1,-1,-1,-1,-1,-1,-1,-1,-1,-1,-1,-1,-1,-1,-1,-1,-1,-1,-1,-1,-1,-1,-1,-1],"loss_changes":[2.9509707E3,3.5734827E2,2.906726E2,4.502777E1,1.9513379E2,2.864087E1,5.9991257E1,7.425638E0,2.7501984E1,1.1573935E2,3.2424805E1,2.1422852E1,5.380341E0,4.9082085E1,9.6071415E0,9.0337276E-1,2.5996068E0,8.524368E0,5.614975E0,9.666706E0,1.8393692E1,5.7441406E0,3.567231E1,1.5817383E1,2.4304634E1,0E0,2.7306702E0,3.656299E1,1.1177004E1,6.4566336E0,2.4673239E1,0E0,0E0,1.0960011E0,5.2074633E0,5.8307953E0,0E0,6.779337E-1,0E0,2.4604092E1,4.8781967E0,7.187378E0,1.1902904E1,1.1022208E1,3.2198486E0,2.4112366E1,7.7039585E0,9.653076E0,1.2481049E1,6.1802173E0,7.5053177E0,1.6138306E0,0E0,8.715744E0,3.49793E1,3.061882E0,5.7457676E0,3.940256E0,4.9488134E0,8.198225E0,9.848368E0,0E0,0E0,0E0,0E0,0E0,0E0,0E0,0E0,0E0,0E0,0E0,0E0,0E0,0E0,0E0,0E0,0E0,0E0,0E0,0E0,0E0,0E0,0E0,0E0,0E0,0E0,0E0,0E0,0E0,0E0,0E0,0E0,0E0,0E0,0E0,0E0,0E0,0E0,0E0,0E0,0E0,0E0,0E0,0E0,0E0,0E0,0E0,0E0,0E0,0E0],"parents":[2147483647,0,0,1,1,2,2,3,3,4,4,5,5,6,6,7,7,8,8,9,9,10,10,11,11,12,12,13,13,14,14,15,15,16,16,17,17,18,18,19,19,20,20,21,21,22,22,23,23,24,24,26,26,27,27,28,28,29,29,30,30,33,33,34,34,35,35,37,37,39,39,40,40,41,41,42,42,43,43,44,44,45,45,46,46,47,47,48,48,49,49,50,50,51,51,53,53,54,54,55,55,56,56,57,57,58,58,59,59,60,60],"right_children":[2,4,6,8,10,12,14,16,18,20,22,24,26,28,30,32,34,36,38,40,42,44,46,48,50,-1,52,54,56,58,60,-1,-1,62,64,66,-1,68,-1,70,72,74,76,78,80,82,84,86,88,90,92,94,-1,96,98,100,102,104,106,108,110,-1,-1,-1,-1,-1,-1,-1,-1,-1,-1,-1,-1,-1,-1,-1,-1,-1,-1,-1,-1,-1,-1,-1,-1,-1,-1,-1,-1,-1,-1,-1,-1,-1,-1,-1,-1,-1,-1,-1,-1,-1,-1,-1,-1,-1,-1,-1,-1,-1,-1],"split_conditions":[1.95449E5,7.5797E4,5.362664E-8,9.0559604E-15,1.3079E4,2.2098371E-13,-2.8056308E-27,7.68E2,4.71E2,1.80187E5,1.91569E5,1.7314E4,1.1239E4,2.3053255E-13,9.818E3,6.08E2,2.858E3,2.99E2,3.0441E4,5.217823E-8,2.271661E-13,1.4092E4,6.15E2,2.2082E5,9.980949E-4,4.2814043E-1,1E0,1.4954E4,2.95E2,1.3E1,1.2903E4,3.839603E-1,3.4681357E-2,4.11E2,7.212E3,4E0,-1.1391696E-1,5.67E2,3.285494E-1,2.0934E4,1.66384E5,2.6E2,1.01E2,1.84147E5,8.895E3,1.9219514E-13,5.167814E-8,8.881896E-28,1.09E2,5.1927127E-8,1.7104E4,4.957914E-8,2.1185903E-1,1.5945E4,1.3292E4,2.8E1,2.04538E5,5.68E2,2.6E1,2.11046E5,5.627E3,-1.4967074E-1,5.8803108E-2,4.8161587E-1,-1.2259616E-1,-2.7014911E-2,4.6801198E-1,-1.5210073E-1,5.9157312E-2,4.4220188E-1,-1.4272699E-1,-1.5752055E-1,-1.0621315E-3,4.3143484E-1,2.308366E-1,3.8902557E-1,-1.0005151E-1,-1.3213769E-1,1.6692413E-1,-8.364137E-2,-1.6416074E-1,3.2520208E-1,-1.09501034E-1,1.1264465E-1,-1.357E-1,4.2092884E-1,3.2563168E-1,3.8160652E-1,-1.0125846E-1,1.2514369E-1,-1.6654184E-1,5.1134974E-1,-1.18124075E-1,1.1008742E-1,-1.5824549E-1,4.512642E-1,-1.1983101E-1,3.983434E-1,-8.436073E-3,3.8676563E-1,-9.423181E-2,-1.2364843E-1,7.751604E-2,-1.3813989E-1,7.128261E-2,3.5366204E-1,-5.520464E-2,6.6765136E-1,-9.398558E-2,-8.57305E-2,2.7008986E-1],"split_indices":[365,365,513,514,292,514,516,447,147,365,365,292,292,514,511,73,246,145,292,513,514,292,356,365,512,0,10,292,429,164,438,0,0,300,301,503,0,510,0,438,365,437,429,365,438,514,513,516,147,513,438,513,0,511,438,383,365,82,1,365,146,0,0,0,0,0,0,0,0,0,0,0,0,0,0,0,0,0,0,0,0,0,0,0,0,0,0,0,0,0,0,0,0,0,0,0,0,0,0,0,0,0,0,0,0,0,0,0,0,0,0],"split_type":[0,0,0,0,0,0,0,0,0,0,0,0,0,0,0,0,0,0,0,0,0,0,0,0,0,0,0,0,0,0,0,0,0,0,0,0,0,0,0,0,0,0,0,0,0,0,0,0,0,0,0,0,0,0,0,0,0,0,0,0,0,0,0,0,0,0,0,0,0,0,0,0,0,0,0,0,0,0,0,0,0,0,0,0,0,0,0,0,0,0,0,0,0,0,0,0,0,0,0,0,0,0,0,0,0,0,0,0,0,0,0],"sum_hessian":[7.7291123E3,6.126493E3,1.6026193E3,1.4961719E2,5.976876E3,1.2178152E3,3.8480405E2,2.813035E1,1.2148684E2,2.4524748E2,5.7316284E3,1.2018751E3,1.5940168E1,2.2301831E2,1.6178572E2,3.9516735E0,2.4178677E1,1.09368454E2,1.2118388E1,1.2839468E2,1.168528E2,5.544821E3,1.8680743E2,1.1612982E3,4.0576897E1,1.252437E0,1.4687732E1,1.5645827E2,6.656005E1,1.0694006E2,5.484565E1,2.889571E0,1.0621024E0,2.053327E1,3.645408E0,1.0733869E2,2.0297618E0,9.976211E0,2.1421773E0,2.5637226E1,1.02757454E2,9.79339E1,1.89189E1,6.896509E1,5.475856E3,4.979317E1,1.3701427E2,1.1435223E3,1.7775787E1,2.4202179E1,1.6374716E1,1.2936379E1,1.7513522E0,7.596995E1,8.048832E1,6.973349E0,5.95867E1,9.767867E1,9.26139E0,7.199262E0,4.764639E1,1.8499084E1,2.0341856E0,1.0982943E0,2.5471137E0,2.0772479E0,1.05261444E2,8.930645E0,1.0455652E0,9.416049E0,1.6221178E1,7.967805E1,2.3079412E1,7.20494E1,2.5884502E1,5.5276237E0,1.3391276E1,5.610496E1,1.2860128E1,4.8260036E1,5.4275957E3,3.3089138E1,1.6704033E1,1.1591968E1,1.254223E2,1.0158595E3,1.27662895E2,7.7101297E0,1.0065658E1,1.261934E1,1.1582839E1,1.4839176E1,1.5355403E0,1.67788E0,1.1258499E1,7.3871254E1,2.098692E0,2.9210869E1,5.1277454E1,5.948919E0,1.02443E0,4.2241146E1,1.7345552E1,8.940605E1,8.272626E0,3.8376863E0,5.4237037E0,5.9183865E0,1.2808757E0,4.020531E1,7.4410787E0],"tree_param":{"num_deleted":"0","num_feature":"519","num_nodes":"111","size_leaf_vector":"1"}},{"base_weights":[-1.654667E-1,4.1568756E-1,-4.19536E-1,-4.0574992E-1,8.715586E-1,-4.9147314E-1,-1.659563E-1,-4.590624E-1,4.0168512E-1,1.0678619E-1,1.1215851E0,-4.1607496E-1,-5.315508E-1,-4.939916E-1,2.030453E-1,4.5279822E-1,-4.8859927E-1,-4.9510717E-1,1.3235557E0,-2.5650373E-1,4.266828E-1,2.6259127E-1,1.3084551E0,-4.9508482E-1,4.737252E-1,-5.445514E-1,-4.7023043E-1,-2.562727E-1,-5.407914E-1,-3.7648126E-1,8.196517E-1,-2.2769694E-1,1.0916722E0,1.9104937E-1,-5.0994295E-1,5.8671884E-2,-1.5938418E-1,1.6163716E0,-1.3418196E-1,-4.2206508E-1,1.0970327E-1,8.8453543E-1,-1.3314836E-1,1.202774E0,-3.9820846E-2,1.3755867E0,-4.5882173E-2,-5.362958E-1,-2.0147556E-1,1.0689206E0,-3.3088696E-1,-5.0105095E-1,-5.479917E-1,4.0571022E-1,-4.8579577E-1,5.567726E-1,-4.0972087E-1,-5.425677E-1,4.0811364E-2,-4.5158437E-1,3.586552E-1,-6.7073636E-2,1.1281096E0,8.310822E-2,-1.566295E-1,4.1915664E-1,1.1555833E-2,-7.995261E-2,3.0608773E-1,-1.5805602E-1,-8.264424E-3,-9.476333E-2,5.198873E-1,-1.3954379E-1,7.2430946E-2,-1.1269501E-1,1.3886702E-1,3.7060812E-1,-2.8344901E-2,2.6664212E-1,-8.031006E-2,4.898603E-1,9.07704E-2,-8.996468E-2,1.78699E-1,2.1871316E-1,4.4304663E-1,2.0836727E-1,-1.24307804E-1,-1.6276552E-1,-1.1431231E-1,-1.5394036E-1,1.2286804E-1,5.970695E-2,5.024567E-1,-1.3697998E-1,2.2124302E-1,-1.5702935E-1,2.8480446E-1,-8.6595364E-2,-1.6453971E-1,-9.844577E-2,5.787356E-1,-1.6401444E-1,-1.1515247E-1,4.944909E-1,-1.0623269E-2,-1.3200769E-1,1.16580665E-1,-1.6333413E-1,-8.367579E-2,-4.1454624E-2,-1.5349063E-1,5.085268E-1,-3.449902E-2,-9.856921E-2,1.3926405E-1,5.111512E-1,2.041628E-1],"categories":[],"categories_nodes":[],"categories_segments":[],"categories_sizes":[],"default_left":[0,0,0,0,0,0,0,0,0,0,0,0,0,0,0,0,0,0,0,0,0,0,0,0,0,0,0,0,0,0,0,0,0,0,0,0,0,0,0,0,0,0,0,0,0,0,0,0,0,0,0,0,0,0,0,0,0,0,0,0,0,0,0,0,0,0,0,0,0,0,0,0,0,0,0,0,0,0,0,0,0,0,0,0,0,0,0,0,0,0,0,0,0,0,0,0,0,0,0,0,0,0,0,0,0,0,0,0,0,0,0,0,0,0,0,0,0,0,0],"id":14,"left_children":[1,3,5,7,9,11,13,15,17,19,21,23,25,27,29,31,33,35,37,39,41,43,45,47,49,51,53,55,57,59,61,63,65,67,69,-1,-1,71,-1,73,75,77,79,81,83,85,87,89,91,93,95,97,99,101,103,105,107,109,-1,111,113,115,117,-1,-1,-1,-1,-1,-1,-1,-1,-1,-1,-1,-1,-1,-1,-1,-1,-1,-1,-1,-1,-1,-1,-1,-1,-1,-1,-1,-1,-1,-1,-1,-1,-1,-1,-1,-1,-1,-1,-1,-1,-1,-1,-1,-1,-1,-1,-1,-1,-1,-1,-1,-1,-1,-1,-1,-1],"loss_changes":[1.1221954E3,8.661541E2,9.638013E1,3.573465E1,2.84255E2,1.2225098E1,1.417372E2,2.1099426E1,4.3384613E1,4.282144E1,1.7954907E2,1.0105661E2,1.8850098E0,6.7560425E0,1.9733856E2,1.1048021E1,1.099646E1,7.766447E-1,1.4079365E1,1.0517974E1,5.030779E1,5.7336056E1,8.372644E1,1.5835266E1,5.6609077E1,5.609131E-2,6.7023697E0,1.3183105E1,6.952362E-1,1.5892773E1,7.3230194E1,2.054912E0,4.124073E0,9.227898E0,5.930084E0,0E0,0E0,5.5755424E0,0E0,3.5180607E0,9.527784E0,3.7158096E1,1.2470931E1,1.8504105E1,2.5533735E1,5.631067E1,1.2408719E1,9.14917E-1,3.139995E1,3.5381447E1,7.147527E0,6.1325912E0,9.210205E-2,1.0555446E1,2.7046509E0,1.0988905E1,2.298254E0,1.0371399E-1,0E0,4.8028564E0,1.726543E1,9.8733E0,4.998613E1,0E0,0E0,0E0,0E0,0E0,